{"learner":{"attributes":{"scikit_learn":"{\"_estimator_type\": \"regressor\"}"},"feature_names":[],"feature_types":[],"gradient_booster":{"model":{"cats":{"enc":[],"feature_segments":[],"sorted_idx":[]},"gbtree_model_param":{"num_parallel_tree":"1","num_trees":"250"},"iteration_indptr":[0,1,2,3,4,5,6,7,8,9,10,11,12,13,14,15,16,17,18,19,20,21,22,23,24,25,26,27,28,29,30,31,32,33,34,35,36,37,38,39,40,41,42,43,44,45,46,47,48,49,50,51,52,53,54,55,56,57,58,59,60,61,62,63,64,65,66,67,68,69,70,71,72,73,74,75,76,77,78,79,80,81,82,83,84,85,86,87,88,89,90,91,92,93,94,95,96,97,98,99,100,101,102,103,104,105,106,107,108,109,110,111,112,113,114,115,116,117,118,119,120,121,122,123,124,125,126,127,128,129,130,131,132,133,134,135,136,137,138,139,140,141,142,143,144,145,146,147,148,149,150,151,152,153,154,155,156,157,158,159,160,161,162,163,164,165,166,167,168,169,170,171,172,173,174,175,176,177,178,179,180,181,182,183,184,185,186,187,188,189,190,191,192,193,194,195,196,197,198,199,200,201,202,203,204,205,206,207,208,209,210,211,212,213,214,215,216,217,218,219,220,221,222,223,224,225,226,227,228,229,230,231,232,233,234,235,236,237,238,239,240,241,242,243,244,245,246,247,248,249,250],"tree_info":[0,0,0,0,0,0,0,0,0,0,0,0,0,0,0,0,0,0,0,0,0,0,0,0,0,0,0,0,0,0,0,0,0,0,0,0,0,0,0,0,0,0,0,0,0,0,0,0,0,0,0,0,0,0,0,0,0,0,0,0,0,0,0,0,0,0,0,0,0,0,0,0,0,0,0,0,0,0,0,0,0,0,0,0,0,0,0,0,0,0,0,0,0,0,0,0,0,0,0,0,0,0,0,0,0,0,0,0,0,0,0,0,0,0,0,0,0,0,0,0,0,0,0,0,0,0,0,0,0,0,0,0,0,0,0,0,0,0,0,0,0,0,0,0,0,0,0,0,0,0,0,0,0,0,0,0,0,0,0,0,0,0,0,0,0,0,0,0,0,0,0,0,0,0,0,0,0,0,0,0,0,0,0,0,0,0,0,0,0,0,0,0,0,0,0,0,0,0,0,0,0,0,0,0,0,0,0,0,0,0,0,0,0,0,0,0,0,0,0,0,0,0,0,0,0,0,0,0,0,0,0,0,0,0,0,0,0,0,0,0,0,0,0,0,0,0,0,0,0,0],"trees":[{"base_weights":[8.332459E-3,-3.6886726E-2,7.391971E-2,5.1719934E-1,4.094037E-3,-0E0,2.9600812E-2,-1.0803345E-2,1.6191138E-3],"categories":[],"categories_nodes":[],"categories_segments":[],"categories_sizes":[],"default_left":[0,0,0,0,0,0,0,0,0],"id":0,"left_children":[1,-1,3,5,7,-1,-1,-1,-1],"loss_changes":[1.8811895E1,0E0,1.0877946E1,1.8805275E0,1.877732E0,0E0,0E0,0E0,0E0],"parents":[2147483647,0,0,2,2,3,3,4,4],"right_children":[2,-1,4,6,8,-1,-1,-1,-1],"split_conditions":[3.75E2,-3.6886726E-2,2.0569313E2,2.863035E1,3.6653481E3,-0E0,2.9600812E-2,-1.0803345E-2,1.6191138E-3],"split_indices":[4,0,1,1,8,0,0,0,0],"split_type":[0,0,0,0,0,0,0,0,0],"sum_hessian":[3.87E2,2.9E1,3.58E2,4.6E1,3.12E2,6E0,4E1,3.2E1,2.8E2],"tree_param":{"num_deleted":"0","num_feature":"12","num_nodes":"9","size_leaf_vector":"1"}},{"base_weights":[-1.8194774E-2,-5.03753E-1,7.898238E-2,-7.311347E-1,-1.6906291E-1,-3.4824517E-2,3.0165341E-1,-1.237581E-2,-4.1192085E-2,-0E0,-1.8679269E-2,9.362777E-3,-3.981979E-3,2.7521426E-4,1.9778786E-2],"categories":[],"categories_nodes":[],"categories_segments":[],"categories_sizes":[],"default_left":[0,0,0,0,0,0,0,0,0,0,0,0,0,0,0],"id":1,"left_children":[1,3,5,7,9,11,13,-1,-1,-1,-1,-1,-1,-1,-1],"loss_changes":[1.9213211E1,4.4776516E0,8.643827E0,8.05048E-1,9.2830807E-1,2.18548E0,2.9938297E0,0E0,0E0,0E0,0E0,0E0,0E0,0E0,0E0],"parents":[2147483647,0,0,1,1,2,2,3,3,4,4,5,5,6,6],"right_children":[2,4,6,8,10,12,14,-1,-1,-1,-1,-1,-1,-1,-1],"split_conditions":[3.6653481E3,3.7526298E-1,2.7E0,1.65E1,2.8412224E3,4.581575E3,6.7E1,-1.237581E-2,-4.1192085E-2,-0E0,-1.8679269E-2,9.362777E-3,-3.981979E-3,2.7521426E-4,1.9778786E-2],"split_indices":[8,10,3,2,8,8,7,0,0,0,0,0,0,0,0],"split_type":[0,0,0,0,0,0,0,0,0,0,0,0,0,0,0],"sum_hessian":[3.99E2,6.6E1,3.33E2,3.7E1,2.9E1,2.2E2,1.13E2,8E0,2.9E1,1.8E1,1.1E1,3.4E1,1.86E2,2.9E1,8.4E1],"tree_param":{"num_deleted":"0","num_feature":"12","num_nodes":"15","size_leaf_vector":"1"}},{"base_weights":[1.7584562E-3,-4.893029E-1,9.495812E-2,-3.5186637E-2,-1.9699559E-1,5.2662873E-1,2.5355712E-2,1.1380553E-2,-1.495295E-2,-0E0,2.857022E-2,-3.607244E-3,6.9890656E-3],"categories":[],"categories_nodes":[],"categories_segments":[],"categories_sizes":[],"default_left":[0,0,0,0,0,0,0,0,0,0,0,0,0],"id":2,"left_children":[1,3,5,-1,7,9,11,-1,-1,-1,-1,-1,-1],"loss_changes":[1.7836319E1,3.158493E0,9.672346E0,0E0,1.4719666E0,9.0641975E-1,3.278234E0,0E0,0E0,0E0,0E0,0E0,0E0],"parents":[2147483647,0,0,1,1,2,2,4,4,5,5,6,6],"right_children":[2,4,6,-1,8,10,12,-1,-1,-1,-1,-1,-1],"split_conditions":[3.6653481E3,3.7526298E-1,2.0569313E2,-3.5186637E-2,6.929167E0,2.863035E1,1.883265E1,1.1380553E-2,-1.495295E-2,-0E0,2.857022E-2,-3.607244E-3,6.9890656E-3],"split_indices":[8,10,1,0,0,1,9,0,0,0,0,0,0],"split_type":[0,0,0,0,0,0,0,0,0,0,0,0,0],"sum_hessian":[3.9E2,6E1,3.3E2,3.2E1,2.8E1,4.3E1,2.87E2,4E0,2.4E1,4E0,3.9E1,1.53E2,1.34E2],"tree_param":{"num_deleted":"0","num_feature":"12","num_nodes":"13","size_leaf_vector":"1"}},{"base_weights":[-9.856648E-3,-5.273007E-1,9.129266E-2,-7.679539E-1,-2.0046422E-1,4.848296E-1,1.7867293E-2,-6.905993E-4,-4.2168822E-2,1.1001198E-2,-1.4705355E-2,-0E0,2.661458E-2,-0E0,2.3440924E-2],"categories":[],"categories_nodes":[],"categories_segments":[],"categories_sizes":[],"default_left":[0,0,0,0,0,0,0,0,0,0,0,0,0,0,0],"id":3,"left_children":[1,3,5,7,9,11,13,-1,-1,-1,-1,-1,-1,-1,-1],"loss_changes":[2.1406944E1,4.4777317E0,9.498036E0,1.6526413E0,1.4264859E0,1.093607E0,2.325757E0,0E0,0E0,0E0,0E0,0E0,0E0,0E0,0E0],"parents":[2147483647,0,0,1,1,2,2,3,3,4,4,5,5,6,6],"right_children":[2,4,6,8,10,12,14,-1,-1,-1,-1,-1,-1,-1,-1],"split_conditions":[3.6653481E3,3.7526298E-1,2.0569313E2,6.720694E2,6.929167E0,2.863035E1,1.2051197E2,-6.905993E-4,-4.2168822E-2,1.1001198E-2,-1.4705355E-2,-0E0,2.661458E-2,-0E0,2.3440924E-2],"split_indices":[8,10,1,1,0,1,6,0,0,0,0,0,0,0,0],"split_type":[0,0,0,0,0,0,0,0,0,0,0,0,0,0,0],"sum_hessian":[4.01E2,6.5E1,3.36E2,3.5E1,3E1,5E1,2.86E2,4E0,3.1E1,4E0,2.6E1,5E0,4.5E1,2.77E2,9E0],"tree_param":{"num_deleted":"0","num_feature":"12","num_nodes":"15","size_leaf_vector":"1"}},{"base_weights":[-6.475132E-3,-4.9041557E-1,8.6525105E-2,-6.1986375E-1,-2.2578044E-2,4.631182E-1,2.1195773E-2,-5.0195206E-2,-2.4350172E-2,-1.9242434E-2,7.5421417E-3,-0E0,2.5665244E-2,-3.1325722E-3,5.944433E-3],"categories":[],"categories_nodes":[],"categories_segments":[],"categories_sizes":[],"default_left":[0,0,0,0,0,0,0,0,0,0,0,0,0,0,0],"id":4,"left_children":[1,3,5,7,9,11,13,-1,-1,-1,-1,-1,-1,-1,-1],"loss_changes":[1.8109415E1,3.5872355E0,7.9308686E0,8.279228E-1,1.3011361E0,1.2982368E0,2.3939118E0,0E0,0E0,0E0,0E0,0E0,0E0,0E0,0E0],"parents":[2147483647,0,0,1,1,2,2,3,3,4,4,5,5,6,6],"right_children":[2,4,6,8,10,12,14,-1,-1,-1,-1,-1,-1,-1,-1],"split_conditions":[3.6653481E3,-1E1,2.0569313E2,7.0921165E1,6.482015E2,2.863035E1,1.9002754E1,-5.0195206E-2,-2.4350172E-2,-1.9242434E-2,7.5421417E-3,-0E0,2.5665244E-2,-3.1325722E-3,5.944433E-3],"split_indices":[8,3,1,6,1,1,9,0,0,0,0,0,0,0,0],"split_type":[0,0,0,0,0,0,0,0,0,0,0,0,0,0,0],"sum_hessian":[3.94E2,6.3E1,3.31E2,4.8E1,1.5E1,4.6E1,2.85E2,8E0,4E1,5E0,1E1,4E0,4.2E1,1.51E2,1.34E2],"tree_param":{"num_deleted":"0","num_feature":"12","num_nodes":"15","size_leaf_vector":"1"}},{"base_weights":[8.763134E-4,-3.6915015E-2,5.7547953E-2,4.240036E-1,-0E0,-0E0,2.3344642E-2,-7.65026E-4,2.646843E-2],"categories":[],"categories_nodes":[],"categories_segments":[],"categories_sizes":[],"default_left":[0,0,0,0,0,0,0,0,0],"id":5,"left_children":[1,-1,3,5,7,-1,-1,-1,-1],"loss_changes":[1.650074E1,0E0,7.93013E0,1.0767479E0,2.5965254E0,0E0,0E0,0E0,0E0],"parents":[2147483647,0,0,2,2,3,3,4,4],"right_children":[2,-1,4,6,8,-1,-1,-1,-1],"split_conditions":[3.75E2,-3.6915015E-2,2.0569313E2,2.7589386E1,1.3268661E2,-0E0,2.3344642E-2,-7.65026E-4,2.646843E-2],"split_indices":[4,0,1,1,6,0,0,0,0],"split_type":[0,0,0,0,0,0,0,0,0],"sum_hessian":[3.98E2,2.6E1,3.72E2,4.9E1,3.23E2,4E0,4.5E1,3.16E2,7E0],"tree_param":{"num_deleted":"0","num_feature":"12","num_nodes":"9","size_leaf_vector":"1"}},{"base_weights":[6.1890683E-3,-4.4246632E-1,9.026191E-2,-5.3674185E-1,5.995035E-3,4.1604647E-1,3.384168E-2,-1.9125594E-2,-3.9446674E-2,-5.7003815E-3,7.849914E-3,3.5439532E-3,2.4404781E-2,1.3455591E-2,3.6211245E-4],"categories":[],"categories_nodes":[],"categories_segments":[],"categories_sizes":[],"default_left":[0,0,0,0,0,0,0,0,0,0,0,0,0,0,0],"id":6,"left_children":[1,3,5,7,9,11,13,-1,-1,-1,-1,-1,-1,-1,-1],"loss_changes":[1.5104826E1,2.935381E0,6.033144E0,8.721876E-1,2.747428E-1,8.6990356E-1,1.7040501E0,0E0,0E0,0E0,0E0,0E0,0E0,0E0,0E0],"parents":[2147483647,0,0,1,1,2,2,3,3,4,4,5,5,6,6],"right_children":[2,4,6,8,10,12,14,-1,-1,-1,-1,-1,-1,-1,-1],"split_conditions":[3.6653481E3,1.2146572E2,2.0569313E2,1.4243353E3,1.1409843E1,3.3197643E1,4.279262E3,-1.9125594E-2,-3.9446674E-2,-5.7003815E-3,7.849914E-3,3.5439532E-3,2.4404781E-2,1.3455591E-2,3.6211245E-4],"split_indices":[8,6,1,1,11,1,8,0,0,0,0,0,0,0,0],"split_type":[0,0,0,0,0,0,0,0,0,0,0,0,0,0,0],"sum_hessian":[4.01E2,6.1E1,3.4E2,5.1E1,1E1,4.7E1,2.93E2,3.6E1,1.5E1,4E0,6E0,1E1,3.7E1,2.6E1,2.67E2],"tree_param":{"num_deleted":"0","num_feature":"12","num_nodes":"15","size_leaf_vector":"1"}},{"base_weights":[2.8168706E-3,-3.6898983E-1,7.6445125E-2,-4.829186E-1,-0E0,-1.135677E-2,2.7793238E-1,-1.16077205E-2,-3.0083759E-2,1.3512771E-2,-5.17697E-3,1.1956288E-2,-2.27546E-3,-3.0479075E-3,1.5237658E-2],"categories":[],"categories_nodes":[],"categories_segments":[],"categories_sizes":[],"default_left":[0,0,0,0,0,0,0,0,0,0,0,0,0,0,0],"id":7,"left_children":[1,3,5,7,9,11,13,-1,-1,-1,-1,-1,-1,-1,-1],"loss_changes":[1.0969836E1,2.9075985E0,6.1545277E0,8.2249737E-1,5.775932E-1,1.9523934E0,1.1134291E0,0E0,0E0,0E0,0E0,0E0,0E0,0E0,0E0],"parents":[2147483647,0,0,1,1,2,2,3,3,4,4,5,5,6,6],"right_children":[2,4,6,8,10,12,14,-1,-1,-1,-1,-1,-1,-1,-1],"split_conditions":[3.6653481E3,-1E1,2.8E0,1.59352045E1,1.47625E1,4.279262E3,3.0009466E1,-1.16077205E-2,-3.0083759E-2,1.3512771E-2,-5.17697E-3,1.1956288E-2,-2.27546E-3,-3.0479075E-3,1.5237658E-2],"split_indices":[8,3,3,11,0,8,1,0,0,0,0,0,0,0,0],"split_type":[0,0,0,0,0,0,0,0,0,0,0,0,0,0,0],"sum_hessian":[4.02E2,6.4E1,3.38E2,4.9E1,1.5E1,2.35E2,1.03E2,1.9E1,3E1,4E0,1.1E1,2.5E1,2.1E2,6E0,9.7E1],"tree_param":{"num_deleted":"0","num_feature":"12","num_nodes":"15","size_leaf_vector":"1"}},{"base_weights":[1.3211086E-2,-3.5687804E-1,8.884424E-2,-4.4054222E-1,6.531183E-2,8.879805E-3,2.7214897E-1,-3.5388615E-2,-1.6459389E-2,8.764431E-3,-9.880583E-4,1.4675366E-2,-1.157416E-3,2.0158613E-2,6.9407052E-3],"categories":[],"categories_nodes":[],"categories_segments":[],"categories_sizes":[],"default_left":[0,0,0,0,0,0,0,0,0,0,0,0,0,0,0],"id":8,"left_children":[1,3,5,7,9,11,13,-1,-1,-1,-1,-1,-1,-1,-1],"loss_changes":[1.1265756E1,2.647068E0,4.823666E0,7.414608E-1,1.969642E-1,2.3366284E0,1.3815427E0,0E0,0E0,0E0,0E0,0E0,0E0,0E0,0E0],"parents":[2147483647,0,0,1,1,2,2,3,3,4,4,5,5,6,6],"right_children":[2,4,6,8,10,12,14,-1,-1,-1,-1,-1,-1,-1,-1],"split_conditions":[3.6653481E3,3.25E1,1.5563279E1,9.332421E0,2.8412224E3,4.279262E3,6.449084E1,-3.5388615E-2,-1.6459389E-2,8.764431E-3,-9.880583E-4,1.4675366E-2,-1.157416E-3,2.0158613E-2,6.9407052E-3],"split_indices":[8,2,10,9,8,8,6,0,0,0,0,0,0,0,0],"split_type":[0,0,0,0,0,0,0,0,0,0,0,0,0,0,0],"sum_hessian":[4.03E2,6.6E1,3.37E2,5.6E1,1E1,2.38E2,9.9E1,1.2E1,4.4E1,6E0,4E0,2.4E1,2.14E2,4.6E1,5.3E1],"tree_param":{"num_deleted":"0","num_feature":"12","num_nodes":"15","size_leaf_vector":"1"}},{"base_weights":[-4.096122E-3,-5.799106E-1,4.2818584E-2,-6.5576416E-1,-2.3946528E-1,3.4869438E-1,-2.3007717E-3,-3.6718447E-2,-9.742397E-3,-0E0,-1.907797E-2,6.7999365E-4,2.1591088E-2,-9.148458E-3,1.3608972E-3],"categories":[],"categories_nodes":[],"categories_segments":[],"categories_sizes":[],"default_left":[0,0,0,0,0,0,0,0,0,0,0,0,0,0,0],"id":9,"left_children":[1,3,5,7,9,11,13,-1,-1,-1,-1,-1,-1,-1,-1],"loss_changes":[1.109686E1,3.8863182E-2,5.2811413E0,8.250618E-2,3.0008912E-1,1.1304646E0,1.8104265E0,0E0,0E0,0E0,0E0,0E0,0E0,0E0,0E0],"parents":[2147483647,0,0,1,1,2,2,3,3,4,4,5,5,6,6],"right_children":[2,4,6,8,10,12,14,-1,-1,-1,-1,-1,-1,-1,-1],"split_conditions":[3.75E2,3.0480056E3,2.0569313E2,-1.49E1,1.13128395E2,3.3197643E1,2.8041668E0,-3.6718447E-2,-9.742397E-3,-0E0,-1.907797E-2,6.7999365E-4,2.1591088E-2,-9.148458E-3,1.3608972E-3],"split_indices":[4,8,1,3,6,1,0,0,0,0,0,0,0,0,0],"split_type":[0,0,0,0,0,0,0,0,0,0,0,0,0,0,0],"sum_hessian":[3.97E2,2.9E1,3.68E2,2.1E1,8E0,4.7E1,3.21E2,1.6E1,5E0,4E0,4E0,1.1E1,3.6E1,4.6E1,2.75E2],"tree_param":{"num_deleted":"0","num_feature":"12","num_nodes":"15","size_leaf_vector":"1"}},{"base_weights":[-1.3192778E-3,-3.4900552E-1,7.862716E-2,-4.04597E-1,5.9936E-2,3.7892976E-1,2.8553898E-2,-4.047073E-2,-1.6299253E-2,8.97938E-3,-0E0,1.4011384E-3,2.190861E-2,-2.044871E-3,5.5482266E-3],"categories":[],"categories_nodes":[],"categories_segments":[],"categories_sizes":[],"default_left":[0,0,0,0,0,0,0,0,0,0,0,0,0,0,0],"id":10,"left_children":[1,3,5,7,9,11,13,-1,-1,-1,-1,-1,-1,-1,-1],"loss_changes":[1.155875E1,1.9940557E0,4.781984E0,1.1322308E0,1.5758699E-1,6.986184E-1,1.698209E0,0E0,0E0,0E0,0E0,0E0,0E0,0E0,0E0],"parents":[2147483647,0,0,1,1,2,2,3,3,4,4,5,5,6,6],"right_children":[2,4,6,8,10,12,14,-1,-1,-1,-1,-1,-1,-1,-1],"split_conditions":[3.8153076E3,2.5422005E1,2.0569313E2,9.157356E0,7.2937744E2,3.3197643E1,1.9205347E1,-4.047073E-2,-1.6299253E-2,8.97938E-3,-0E0,1.4011384E-3,2.190861E-2,-2.044871E-3,5.5482266E-3],"split_indices":[8,9,1,11,1,1,9,0,0,0,0,0,0,0,0],"split_type":[0,0,0,0,0,0,0,0,0,0,0,0,0,0,0],"sum_hessian":[4.07E2,7.6E1,3.31E2,6.8E1,8E0,4.4E1,2.87E2,7E0,6.1E1,4E0,4E0,8E0,3.6E1,1.53E2,1.34E2],"tree_param":{"num_deleted":"0","num_feature":"12","num_nodes":"15","size_leaf_vector":"1"}},{"base_weights":[-4.854698E-3,-5.3682363E-1,4.2703822E-2,-6.436744E-1,-1.9198485E-1,-3.21868E-2,1.9956651E-1,-3.547569E-2,-6.3159144E-3,-0E0,-1.806296E-2,-1.267367E-2,-4.393969E-5,-1.9330183E-3,1.3345848E-2],"categories":[],"categories_nodes":[],"categories_segments":[],"categories_sizes":[],"default_left":[0,0,0,0,0,0,0,0,0,0,0,0,0,0,0],"id":11,"left_children":[1,3,5,7,9,11,13,-1,-1,-1,-1,-1,-1,-1,-1],"loss_changes":[1.0463369E1,5.877924E-1,4.443128E0,2.2033215E-1,4.712592E-1,1.604389E0,2.092218E0,0E0,0E0,0E0,0E0,0E0,0E0,0E0,0E0],"parents":[2147483647,0,0,1,1,2,2,3,3,4,4,5,5,6,6],"right_children":[2,4,6,8,10,12,14,-1,-1,-1,-1,-1,-1,-1,-1],"split_conditions":[3.75E2,3.0480056E3,2.7E0,2.4491992E0,1.13128395E2,3.451791E1,5.944133E3,-3.547569E-2,-6.3159144E-3,-0E0,-1.806296E-2,-1.267367E-2,-4.393969E-5,-1.9330183E-3,1.3345848E-2],"split_indices":[4,8,3,10,6,6,8,0,0,0,0,0,0,0,0],"split_type":[0,0,0,0,0,0,0,0,0,0,0,0,0,0,0],"sum_hessian":[4E2,3.2E1,3.68E2,2.2E1,1E1,2.48E2,1.2E2,1.8E1,4E0,5E0,5E0,2.7E1,2.21E2,2.5E1,9.5E1],"tree_param":{"num_deleted":"0","num_feature":"12","num_nodes":"15","size_leaf_vector":"1"}},{"base_weights":[5.310316E-3,-3.1138042E-1,7.430257E-2,-3.7112838E-1,-0E0,3.4685582E-1,2.4210403E-2,-3.0531704E-2,-1.4111693E-2,-9.7779315E-3,7.405806E-3,-0E0,2.1069143E-2,2.813465E-2,4.3948466E-4],"categories":[],"categories_nodes":[],"categories_segments":[],"categories_sizes":[],"default_left":[0,0,0,0,0,0,0,0,0,0,0,0,0,0,0],"id":12,"left_children":[1,3,5,7,9,11,13,-1,-1,-1,-1,-1,-1,-1,-1],"loss_changes":[8.711115E0,1.3801756E0,4.3440485E0,4.8632717E-1,4.269045E-1,1.4422188E0,2.0709453E0,0E0,0E0,0E0,0E0,0E0,0E0,0E0,0E0],"parents":[2147483647,0,0,1,1,2,2,3,3,4,4,5,5,6,6],"right_children":[2,4,6,8,10,12,14,-1,-1,-1,-1,-1,-1,-1,-1],"split_conditions":[3.8153076E3,3.25E1,2.0569313E2,2.91E2,6.482015E2,3.3197643E1,4.0043743E3,-3.0531704E-2,-1.4111693E-2,-9.7779315E-3,7.405806E-3,-0E0,2.1069143E-2,2.813465E-2,4.3948466E-4],"split_indices":[8,2,1,4,1,1,8,0,0,0,0,0,0,0,0],"split_type":[0,0,0,0,0,0,0,0,0,0,0,0,0,0,0],"sum_hessian":[4E2,6.9E1,3.31E2,5.8E1,1.1E1,4.8E1,2.83E2,1.1E1,4.7E1,4E0,7E0,8E0,4E1,5E0,2.78E2],"tree_param":{"num_deleted":"0","num_feature":"12","num_nodes":"15","size_leaf_vector":"1"}},{"base_weights":[1.7575979E-3,-4.509197E-1,4.092062E-2,-4.001153E-2,-3.0295756E-1,2.458649E-1,-9.7295217E-4,-3.5896916E-3,-2.0360533E-2,-1.4385999E-3,1.41622E-2,-9.381051E-4,1.1603351E-2],"categories":[],"categories_nodes":[],"categories_segments":[],"categories_sizes":[],"default_left":[0,0,0,0,0,0,0,0,0,0,0,0,0],"id":13,"left_children":[1,3,5,-1,7,9,11,-1,-1,-1,-1,-1,-1],"loss_changes":[6.9231887E0,5.6576204E-1,3.308274E0,0E0,3.2861495E-1,8.108041E-1,1.1788951E0,0E0,0E0,0E0,0E0,0E0,0E0],"parents":[2147483647,0,0,1,1,2,2,4,4,5,5,6,6],"right_children":[2,4,6,-1,8,10,12,-1,-1,-1,-1,-1,-1],"split_conditions":[3.75E2,1.0773074E3,3.394983E2,-4.001153E-2,1.4218268E3,5.2291797E3,1.2051197E2,-3.5896916E-3,-2.0360533E-2,-1.4385999E-3,1.41622E-2,-9.381051E-4,1.1603351E-2],"split_indices":[4,8,1,0,1,8,6,0,0,0,0,0,0],"split_type":[0,0,0,0,0,0,0,0,0,0,0,0,0],"sum_hessian":[3.98E2,2.9E1,3.69E2,5E0,2.4E1,6.3E1,3.06E2,1E1,1.4E1,6E0,5.7E1,2.88E2,1.8E1],"tree_param":{"num_deleted":"0","num_feature":"12","num_nodes":"13","size_leaf_vector":"1"}},{"base_weights":[-8.2642E-3,-3.334317E-1,5.59136E-2,-5.138434E-1,-3.8130153E-2,3.6176553E-1,3.361299E-3,-2.0039232E-2,-4.3852385E-2,1.9826328E-3,-1.0903762E-2,-0E0,2.0249555E-2,1.0229447E-2,-8.019533E-4],"categories":[],"categories_nodes":[],"categories_segments":[],"categories_sizes":[],"default_left":[0,0,0,0,0,0,0,0,0,0,0,0,0,0,0],"id":14,"left_children":[1,3,5,7,9,11,13,-1,-1,-1,-1,-1,-1,-1,-1],"loss_changes":[8.586065E0,3.3075857E0,5.23168E0,3.41671E-1,5.1240814E-1,9.3481636E-1,1.2368696E0,0E0,0E0,0E0,0E0,0E0,0E0,0E0,0E0],"parents":[2147483647,0,0,1,1,2,2,3,3,4,4,5,5,6,6],"right_children":[2,4,6,8,10,12,14,-1,-1,-1,-1,-1,-1,-1,-1],"split_conditions":[3.6653481E3,3.7526298E-1,2.0569313E2,6E0,2.8412224E3,2.863035E1,4.279262E3,-2.0039232E-2,-4.3852385E-2,1.9826328E-3,-1.0903762E-2,-0E0,2.0249555E-2,1.0229447E-2,-8.019533E-4],"split_indices":[8,10,1,5,8,1,8,0,0,0,0,0,0,0,0],"split_type":[0,0,0,0,0,0,0,0,0,0,0,0,0,0,0],"sum_hessian":[4.01E2,6.6E1,3.35E2,3.9E1,2.7E1,4.6E1,2.89E2,3.4E1,5E0,1.8E1,9E0,4E0,4.2E1,2.6E1,2.63E2],"tree_param":{"num_deleted":"0","num_feature":"12","num_nodes":"15","size_leaf_vector":"1"}},{"base_weights":[-5.7187583E-3,-3.6122993E-1,6.327576E-2,-2.6029482E-1,-3.8656235E-2,1.7458291E-1,-1.37561E-2,-2.5928697E-2,-4.5351996E-3,1.0135483E-2,-8.939703E-3,-2.8518985E-3,5.5828127E-3],"categories":[],"categories_nodes":[],"categories_segments":[],"categories_sizes":[],"default_left":[0,0,0,0,0,0,0,0,0,0,0,0,0],"id":15,"left_children":[1,3,5,7,-1,9,11,-1,-1,-1,-1,-1,-1],"loss_changes":[9.932436E0,1.8247375E0,2.9404244E0,2.0979881E0,0E0,1.4660125E0,1.0493321E0,0E0,0E0,0E0,0E0,0E0,0E0],"parents":[2147483647,0,0,1,1,2,2,3,3,5,5,6,6],"right_children":[2,4,6,8,-1,10,12,-1,-1,-1,-1,-1,-1],"split_conditions":[3.6653481E3,6E0,7.901068E2,-2.31E1,-3.8656235E-2,3.0894022E1,9.4874245E1,-2.5928697E-2,-4.5351996E-3,1.0135483E-2,-8.939703E-3,-2.8518985E-3,5.5828127E-3],"split_indices":[8,5,1,3,0,9,6,0,0,0,0,0,0],"split_type":[0,0,0,0,0,0,0,0,0,0,0,0,0],"sum_hessian":[3.95E2,6.4E1,3.31E2,5.5E1,9E0,1.37E2,1.94E2,1.9E1,3.6E1,1.29E2,8E0,1.48E2,4.6E1],"tree_param":{"num_deleted":"0","num_feature":"12","num_nodes":"13","size_leaf_vector":"1"}},{"base_weights":[-5.1319585E-3,-2.7201858E-1,4.5190115E-2,-3.473003E-2,-1.8844487E-1,3.0317003E-1,2.9940094E-4,-2.2644294E-2,-1.7151058E-3,-0E0,1.8458813E-2,-6.619486E-4,1.9515632E-2],"categories":[],"categories_nodes":[],"categories_segments":[],"categories_sizes":[],"default_left":[0,0,0,0,0,0,0,0,0,0,0,0,0],"id":16,"left_children":[1,3,5,-1,7,9,11,-1,-1,-1,-1,-1,-1],"loss_changes":[5.4832535E0,1.5922785E0,3.7276857E0,0E0,2.0895128E0,1.0398655E0,1.7248334E0,0E0,0E0,0E0,0E0,0E0,0E0],"parents":[2147483647,0,0,1,1,2,2,4,4,5,5,6,6],"right_children":[2,4,6,-1,8,10,12,-1,-1,-1,-1,-1,-1],"split_conditions":[3.6653481E3,9.157356E0,2.0569313E2,-3.473003E-2,3.22E2,3.0009466E1,1.2051197E2,-2.2644294E-2,-1.7151058E-3,-0E0,1.8458813E-2,-6.619486E-4,1.9515632E-2],"split_indices":[8,11,1,0,4,1,6,0,0,0,0,0,0],"split_type":[0,0,0,0,0,0,0,0,0,0,0,0,0],"sum_hessian":[3.96E2,6.3E1,3.33E2,7E0,5.6E1,4.6E1,2.87E2,1.8E1,3.8E1,8E0,3.8E1,2.78E2,9E0],"tree_param":{"num_deleted":"0","num_feature":"12","num_nodes":"13","size_leaf_vector":"1"}},{"base_weights":[-5.795272E-3,-8.123505E-2,1.7331132E-1,-4.0321788E-1,-4.168733E-2,3.557972E-2,2.261689E-1,-2.4924606E-2,-7.28986E-4,-9.2276244E-4,-1.7177653E-2,8.034584E-3,-9.564023E-3,-1.65381E-3,1.3267471E-2],"categories":[],"categories_nodes":[],"categories_segments":[],"categories_sizes":[],"default_left":[0,0,0,0,0,0,0,0,0,0,0,0,0,0,0],"id":17,"left_children":[1,3,5,7,9,11,13,-1,-1,-1,-1,-1,-1,-1,-1],"loss_changes":[5.467895E0,3.423965E0,7.1937037E-1,8.3974457E-1,1.6366999E0,1.1247311E0,9.7675085E-1,0E0,0E0,0E0,0E0,0E0,0E0,0E0,0E0],"parents":[2147483647,0,0,1,1,2,2,3,3,4,4,5,5,6,6],"right_children":[2,4,6,8,10,12,14,-1,-1,-1,-1,-1,-1,-1,-1],"split_conditions":[2.7E0,3.75E2,6.7E1,3.0480056E3,1.8E0,2.0089804E1,2.63E1,-2.4924606E-2,-7.28986E-4,-9.2276244E-4,-1.7177653E-2,8.034584E-3,-9.564023E-3,-1.65381E-3,1.3267471E-2],"split_indices":[3,4,7,8,3,10,2,0,0,0,0,0,0,0,0],"split_type":[0,0,0,0,0,0,0,0,0,0,0,0,0,0,0],"sum_hessian":[4.04E2,2.87E2,1.17E2,2.8E1,2.59E2,3.6E1,8.1E1,2.1E1,7E0,2.44E2,1.5E1,2.5E1,1.1E1,9E0,7.2E1],"tree_param":{"num_deleted":"0","num_feature":"12","num_nodes":"15","size_leaf_vector":"1"}},{"base_weights":[-1.9348273E-2,-2.7645692E-1,2.6858987E-2,-2.8876437E-2,-1.7906775E-1,-4.560871E-2,9.409857E-2,3.530424E-3,-1.3616634E-2,-0E0,-1.5272033E-2,3.754301E-3,2.6538149E-2],"categories":[],"categories_nodes":[],"categories_segments":[],"categories_sizes":[],"default_left":[0,0,0,0,0,0,0,0,0,0,0,0,0],"id":18,"left_children":[1,3,5,-1,7,9,11,-1,-1,-1,-1,-1,-1],"loss_changes":[4.832362E0,1.2327781E0,1.665182E0,0E0,1.3269076E0,1.8150175E0,1.0951443E0,0E0,0E0,0E0,0E0,0E0,0E0],"parents":[2147483647,0,0,1,1,2,2,4,4,5,5,6,6],"right_children":[2,4,6,-1,8,10,12,-1,-1,-1,-1,-1,-1],"split_conditions":[3.6653481E3,9.332421E0,1.9205347E1,-2.8876437E-2,1.2770066E1,1.7650389E1,1.2051197E2,3.530424E-3,-1.3616634E-2,-0E0,-1.5272033E-2,3.754301E-3,2.6538149E-2],"split_indices":[8,9,9,0,9,9,6,0,0,0,0,0,0],"split_type":[0,0,0,0,0,0,0,0,0,0,0,0,0],"sum_hessian":[3.93E2,6E1,3.33E2,1.1E1,4.9E1,1.57E2,1.76E2,1.2E1,3.7E1,1.36E2,2.1E1,1.72E2,4E0],"tree_param":{"num_deleted":"0","num_feature":"12","num_nodes":"13","size_leaf_vector":"1"}},{"base_weights":[5.426043E-3,-4.132454E-1,3.9655365E-2,-3.413811E-2,-2.7936587E-1,-3.37285E-2,1.1986096E-1,-2.2895547E-2,6.089687E-4,-1.8455528E-4,-1.7617088E-2,7.635398E-5,8.329149E-3],"categories":[],"categories_nodes":[],"categories_segments":[],"categories_sizes":[],"default_left":[0,0,0,0,0,0,0,0,0,0,0,0,0],"id":19,"left_children":[1,3,5,-1,7,9,11,-1,-1,-1,-1,-1,-1],"loss_changes":[5.5209923E0,1.8385553E-1,2.2230103E0,0E0,1.4833151E0,1.6473119E0,9.106202E-1,0E0,0E0,0E0,0E0,0E0,0E0],"parents":[2147483647,0,0,1,1,2,2,4,4,5,5,6,6],"right_children":[2,4,6,-1,8,10,12,-1,-1,-1,-1,-1,-1],"split_conditions":[3.75E2,1.0773074E3,1.3595833E1,-3.413811E-2,1.7084656E1,1.0131448E1,6.7E1,-2.2895547E-2,6.089687E-4,-1.8455528E-4,-1.7617088E-2,7.635398E-5,8.329149E-3],"split_indices":[4,8,0,0,11,10,7,0,0,0,0,0,0],"split_type":[0,0,0,0,0,0,0,0,0,0,0,0,0],"sum_hessian":[3.94E2,2.7E1,3.67E2,5E0,2.2E1,1.89E2,1.78E2,1.4E1,8E0,1.76E2,1.3E1,5.4E1,1.24E2],"tree_param":{"num_deleted":"0","num_feature":"12","num_nodes":"13","size_leaf_vector":"1"}},{"base_weights":[-2.0923968E-2,-2.8495166E-1,2.7917106E-2,-3.3218488E-1,3.6065727E-3,1.4405566E-1,-5.3481832E-2,-3.5316445E-2,-1.3106117E-2,9.660114E-3,-5.803494E-4,-1.2205814E-3,-1.5846187E-2],"categories":[],"categories_nodes":[],"categories_segments":[],"categories_sizes":[],"default_left":[0,0,0,0,0,0,0,0,0,0,0,0,0],"id":20,"left_children":[1,3,5,7,-1,9,11,-1,-1,-1,-1,-1,-1],"loss_changes":[5.3670626E0,1.2742515E0,3.2938118E0,6.920805E-1,0E0,1.1969242E0,1.345521E0,0E0,0E0,0E0,0E0,0E0,0E0],"parents":[2147483647,0,0,1,1,2,2,3,3,5,5,6,6],"right_children":[2,4,6,8,-1,10,12,-1,-1,-1,-1,-1,-1],"split_conditions":[3.5977058E3,2.715383E1,7.8677277E2,7.40674E0,3.6065727E-3,8.3238014E1,1.636E3,-3.5316445E-2,-1.3106117E-2,9.660114E-3,-5.803494E-4,-1.2205814E-3,-1.5846187E-2],"split_indices":[8,9,1,11,0,6,4,0,0,0,0,0,0],"split_type":[0,0,0,0,0,0,0,0,0,0,0,0,0],"sum_hessian":[4.03E2,6.3E1,3.4E2,5.7E1,6E0,1.42E2,1.98E2,5E0,5.2E1,1.1E2,3.2E1,1.82E2,1.6E1],"tree_param":{"num_deleted":"0","num_feature":"12","num_nodes":"13","size_leaf_vector":"1"}},{"base_weights":[-1.1262236E-2,-1.1124904E-1,6.640256E-2,-1.285218E-1,1.0515696E-2,-1.5859501E-2,1.08358316E-1,-7.952413E-3,4.1849874E-3,1.3463271E-3,-1.048326E-2,7.2798594E-3,-1.1525116E-3],"categories":[],"categories_nodes":[],"categories_segments":[],"categories_sizes":[],"default_left":[0,0,0,0,0,0,0,0,0,0,0,0,0],"id":21,"left_children":[1,3,5,7,-1,9,11,-1,-1,-1,-1,-1,-1],"loss_changes":[3.0113668E0,9.6294594E-1,7.882789E-1,1.1332295E0,0E0,6.83113E-1,7.8243744E-1,0E0,0E0,0E0,0E0,0E0,0E0],"parents":[2147483647,0,0,1,1,2,2,3,3,5,5,6,6],"right_children":[2,4,6,8,-1,10,12,-1,-1,-1,-1,-1,-1],"split_conditions":[5.860299E3,1.3268661E2,2.63E1,1.04E2,1.0515696E-2,1.81E2,8.157706E0,-7.952413E-3,4.1849874E-3,1.3463271E-3,-1.048326E-2,7.2798594E-3,-1.1525116E-3],"split_indices":[8,6,2,7,0,7,11,0,0,0,0,0,0],"split_type":[0,0,0,0,0,0,0,0,0,0,0,0,0],"sum_hessian":[3.81E2,1.69E2,2.12E2,1.63E2,6E0,6.8E1,1.44E2,1.45E2,1.8E1,5.5E1,1.3E1,1.15E2,2.9E1],"tree_param":{"num_deleted":"0","num_feature":"12","num_nodes":"13","size_leaf_vector":"1"}},{"base_weights":[4.584462E-3,-1.8224739E-1,6.0269967E-2,-5.701748E-2,-4.749553E-1,1.5707183E-1,1.1430581E-2,7.8053335E-3,-9.145898E-3,-3.1666216E-2,-3.8286948E-3,4.890414E-3,2.3868954E-2,-1.29054515E-2,1.3934294E-3],"categories":[],"categories_nodes":[],"categories_segments":[],"categories_sizes":[],"default_left":[0,0,0,0,0,0,0,0,0,0,0,0,0,0,0],"id":22,"left_children":[1,3,5,7,9,11,13,-1,-1,-1,-1,-1,-1,-1,-1],"loss_changes":[3.8832216E0,2.795594E0,1.3021144E0,1.7609582E0,1.0622487E0,1.422365E0,7.898355E-1,0E0,0E0,0E0,0E0,0E0,0E0,0E0,0E0],"parents":[2147483647,0,0,1,1,2,2,3,3,4,4,5,5,6,6],"right_children":[2,4,6,8,10,12,14,-1,-1,-1,-1,-1,-1,-1,-1],"split_conditions":[-1.45E1,1.8E1,5.761445E2,1.06300575E2,4.6671904E3,1.0300186E1,6.482015E2,7.8053335E-3,-9.145898E-3,-3.1666216E-2,-3.8286948E-3,4.890414E-3,2.3868954E-2,-1.29054515E-2,1.3934294E-3],"split_indices":[3,7,1,6,8,11,1,0,0,0,0,0,0,0,0],"split_type":[0,0,0,0,0,0,0,0,0,0,0,0,0,0,0],"sum_hessian":[3.75E2,8.3E1,2.92E2,6.1E1,2.2E1,9.3E1,1.99E2,2.1E1,4E1,1.4E1,8E0,8.2E1,1.1E1,8E0,1.91E2],"tree_param":{"num_deleted":"0","num_feature":"12","num_nodes":"15","size_leaf_vector":"1"}},{"base_weights":[2.3787671E-3,-1.2283108E-1,7.9257265E-2,-2.8247878E-2,-8.360693E-2,8.753934E-3,1.4677249E-1,-2.4962023E-2,-2.7233092E-3,3.2196853E-3,-1.9653508E-2,-4.592221E-3,8.114151E-3],"categories":[],"categories_nodes":[],"categories_segments":[],"categories_sizes":[],"default_left":[0,0,0,0,0,0,0,0,0,0,0,0,0],"id":23,"left_children":[1,3,5,-1,7,9,11,-1,-1,-1,-1,-1,-1],"loss_changes":[3.8865657E0,2.2172382E0,1.1287194E0,0E0,1.4007608E0,2.7927463E0,5.3136396E-1,0E0,0E0,0E0,0E0,0E0,0E0],"parents":[2147483647,0,0,1,1,2,2,4,4,5,5,6,6],"right_children":[2,4,6,-1,8,10,12,-1,-1,-1,-1,-1,-1],"split_conditions":[9.404166E0,1.8393151E3,2.7E0,-2.8247878E-2,2.0715551E0,1.8E0,2.863035E1,-2.4962023E-2,-2.7233092E-3,3.2196853E-3,-1.9653508E-2,-4.592221E-3,8.114151E-3],"split_indices":[0,8,3,0,9,3,1,0,0,0,0,0,0],"split_type":[0,0,0,0,0,0,0,0,0,0,0,0,0],"sum_hessian":[4.02E2,1.5E2,2.52E2,9E0,1.41E2,1.28E2,1.24E2,6E0,1.35E2,1.15E2,1.3E1,5E0,1.19E2],"tree_param":{"num_deleted":"0","num_feature":"12","num_nodes":"13","size_leaf_vector":"1"}},{"base_weights":[1.9444746E-3,-2.5961095E-1,5.417615E-2,-3.9590046E-1,-5.300355E-2,1.2662378E-1,-3.8372725E-4,-9.03736E-3,-2.9354943E-2,3.0396576E-3,-1.5303467E-2,8.1176665E-3,-0E0,-2.1570348E-3,5.3387526E-3],"categories":[],"categories_nodes":[],"categories_segments":[],"categories_sizes":[],"default_left":[0,0,0,0,0,0,0,0,0,0,0,0,0,0,0],"id":24,"left_children":[1,3,5,7,9,11,13,-1,-1,-1,-1,-1,-1,-1,-1],"loss_changes":[5.4446497E0,1.5920358E0,1.4071467E0,9.6704817E-1,1.0237933E0,5.9984326E-1,8.570981E-1,0E0,0E0,0E0,0E0,0E0,0E0,0E0,0E0],"parents":[2147483647,0,0,1,1,2,2,3,3,4,4,5,5,6,6],"right_children":[2,4,6,8,10,12,14,-1,-1,-1,-1,-1,-1,-1,-1],"split_conditions":[3.6653481E3,1.8071059E0,7.901068E2,-3.7665722E0,2.8412224E3,8.3238014E1,9.4874245E1,-9.03736E-3,-2.9354943E-2,3.0396576E-3,-1.5303467E-2,8.1176665E-3,-0E0,-2.1570348E-3,5.3387526E-3],"split_indices":[8,10,1,10,8,6,6,0,0,0,0,0,0,0,0],"split_type":[0,0,0,0,0,0,0,0,0,0,0,0,0,0,0],"sum_hessian":[4.02E2,6.4E1,3.38E2,3.6E1,2.8E1,1.48E2,1.9E2,2E1,1.6E1,1.9E1,9E0,1.12E2,3.6E1,1.4E2,5E1],"tree_param":{"num_deleted":"0","num_feature":"12","num_nodes":"15","size_leaf_vector":"1"}},{"base_weights":[-0E0,-2.1992502E-1,5.2799527E-2,-4.777909E-1,-1.2260332E-1,-2.7692832E-2,1.2533563E-1,-2.8396262E-2,-7.468745E-3,-3.043071E-3,-2.8733E-2,4.0220757E-4,-1.3035004E-2,2.5664256E-3,1.10390475E-2],"categories":[],"categories_nodes":[],"categories_segments":[],"categories_sizes":[],"default_left":[0,0,0,0,0,0,0,0,0,0,0,0,0,0,0],"id":25,"left_children":[1,3,5,7,9,11,13,-1,-1,-1,-1,-1,-1,-1,-1],"loss_changes":[4.621928E0,1.5150332E0,1.9357934E0,3.4111977E-2,1.2869405E0,1.3878957E0,1.0632892E0,0E0,0E0,0E0,0E0,0E0,0E0,0E0,0E0],"parents":[2147483647,0,0,1,1,2,2,3,3,4,4,5,5,6,6],"right_children":[2,4,6,8,10,12,14,-1,-1,-1,-1,-1,-1,-1,-1],"split_conditions":[3.8153076E3,2.3102275E3,1.9205347E1,-1.49E1,1.3E1,1.7778425E1,3.7E1,-2.8396262E-2,-7.468745E-3,-3.043071E-3,-2.8733E-2,4.0220757E-4,-1.3035004E-2,2.5664256E-3,1.10390475E-2],"split_indices":[8,8,9,3,5,9,5,0,0,0,0,0,0,0,0],"split_type":[0,0,0,0,0,0,0,0,0,0,0,0,0,0,0],"sum_hessian":[3.95E2,7.5E1,3.2E2,1.7E1,5.8E1,1.49E2,1.71E2,1.1E1,6E0,5.4E1,4E0,1.29E2,2E1,1.01E2,7E1],"tree_param":{"num_deleted":"0","num_feature":"12","num_nodes":"15","size_leaf_vector":"1"}},{"base_weights":[-2.4482759E-2,-3.2567582E-1,1.3710199E-3,-4.358122E-1,-1.02070525E-1,-6.999242E-3,1.9571621E-2,-8.429964E-3,-3.346919E-2,-0E0,-1.0563069E-2,-2.693801E-3,4.79865E-3],"categories":[],"categories_nodes":[],"categories_segments":[],"categories_sizes":[],"default_left":[0,0,0,0,0,0,0,0,0,0,0,0,0],"id":26,"left_children":[1,3,5,7,9,11,-1,-1,-1,-1,-1,-1,-1],"loss_changes":[3.2622628E0,4.5478535E-1,1.3959202E0,6.0355973E-1,2.4540643E-1,1.7270151E0,0E0,0E0,0E0,0E0,0E0,0E0,0E0],"parents":[2147483647,0,0,1,1,2,2,3,3,4,4,5,5],"right_children":[2,4,6,8,10,12,-1,-1,-1,-1,-1,-1,-1],"split_conditions":[3.75E2,2.802728E3,1.3268661E2,1.4218268E3,3.1591567E3,3.7E1,1.9571621E-2,-8.429964E-3,-3.346919E-2,-0E0,-1.0563069E-2,-2.693801E-3,4.79865E-3],"split_indices":[4,8,6,1,8,5,0,0,0,0,0,0,0],"split_type":[0,0,0,0,0,0,0,0,0,0,0,0,0],"sum_hessian":[3.96E2,3.1E1,3.65E2,1.8E1,1.3E1,3.58E2,7E0,1.1E1,7E0,6E0,7E0,2.5E2,1.08E2],"tree_param":{"num_deleted":"0","num_feature":"12","num_nodes":"13","size_leaf_vector":"1"}},{"base_weights":[7.455233E-3,-3.459713E-1,3.9419293E-2,-3.789286E-2,-4.5983484E-1,1.6277562E-1,-0E0,-1.2006876E-2,8.053216E-3,-9.925995E-3,-3.6880936E-2,-9.796013E-3,9.6820695E-3,1.1783439E-2,-6.517412E-4],"categories":[],"categories_nodes":[],"categories_segments":[],"categories_sizes":[],"default_left":[0,0,0,0,0,0,0,0,0,0,0,0,0,0,0],"id":27,"left_children":[1,3,5,7,9,11,13,-1,-1,-1,-1,-1,-1,-1,-1],"loss_changes":[4.381481E0,8.388121E-1,1.8642414E0,5.99748E-1,8.360262E-1,1.0933073E0,7.6755196E-1,0E0,0E0,0E0,0E0,0E0,0E0,0E0,0E0],"parents":[2147483647,0,0,1,1,2,2,3,3,4,4,5,5,6,6],"right_children":[2,4,6,8,10,12,14,-1,-1,-1,-1,-1,-1,-1,-1],"split_conditions":[3.86E2,-2.52E1,5.745967E2,-1.0000001E0,1.4218268E3,9.18E2,4.21E2,-1.2006876E-2,8.053216E-3,-9.925995E-3,-3.6880936E-2,-9.796013E-3,9.6820695E-3,1.1783439E-2,-6.517412E-4],"split_indices":[4,3,1,0,1,4,4,0,0,0,0,0,0,0,0],"split_type":[0,0,0,0,0,0,0,0,0,0,0,0,0,0,0],"sum_hessian":[3.97E2,3E1,3.67E2,1E1,2E1,9E1,2.77E2,6E0,4E0,1.3E1,7E0,5E0,8.5E1,1.1E1,2.66E2],"tree_param":{"num_deleted":"0","num_feature":"12","num_nodes":"15","size_leaf_vector":"1"}},{"base_weights":[9.874375E-3,-2.3845945E-2,2.8484978E-2,-1.975806E-2,3.8412955E-2,1.038623E-2,8.64715E-4],"categories":[],"categories_nodes":[],"categories_segments":[],"categories_sizes":[],"default_left":[0,0,0,0,0,0,0],"id":28,"left_children":[1,-1,3,-1,5,-1,-1],"loss_changes":[3.4629974E0,0E0,1.5007168E0,0E0,1.2605004E0,0E0,0E0],"parents":[2147483647,0,0,2,2,4,4],"right_children":[2,-1,4,-1,6,-1,-1],"split_conditions":[2.91E2,-2.3845945E-2,1.6895643E0,-1.975806E-2,1.6797594E2,1.038623E-2,8.64715E-4],"split_indices":[4,0,9,0,1,0,0],"split_type":[0,0,0,0,0,0,0],"sum_hessian":[4.02E2,1.2E1,3.9E2,6E0,3.84E2,3.8E1,3.46E2],"tree_param":{"num_deleted":"0","num_feature":"12","num_nodes":"7","size_leaf_vector":"1"}},{"base_weights":[-6.089972E-3,-1.9746687E-1,3.1525068E-2,-1.3686913E-1,-3.0749938E-2,3.5012573E-1,1.0586896E-2,-9.747587E-3,9.969677E-3,-0E0,2.3181636E-2,-6.249329E-3,3.2270171E-3],"categories":[],"categories_nodes":[],"categories_segments":[],"categories_sizes":[],"default_left":[0,0,0,0,0,0,0,0,0,0,0,0,0],"id":29,"left_children":[1,3,5,7,-1,9,11,-1,-1,-1,-1,-1,-1],"loss_changes":[2.9676826E0,1.1762183E0,2.0336452E0,1.3059769E0,0E0,8.9515686E-1,2.2973413E0,0E0,0E0,0E0,0E0,0E0,0E0],"parents":[2147483647,0,0,1,1,2,2,3,3,5,5,6,6],"right_children":[2,4,6,8,-1,10,12,-1,-1,-1,-1,-1,-1],"split_conditions":[3.8153076E3,4.4E1,4.279262E3,2.3E1,-3.0749938E-2,3E0,5.944133E3,-9.747587E-3,9.969677E-3,-0E0,2.3181636E-2,-6.249329E-3,3.2270171E-3],"split_indices":[8,7,8,7,0,5,8,0,0,0,0,0,0],"split_type":[0,0,0,0,0,0,0,0,0,0,0,0,0],"sum_hessian":[3.97E2,6.6E1,3.31E2,6.1E1,5E0,1.7E1,3.14E2,5.4E1,7E0,4E0,1.3E1,8.6E1,2.28E2],"tree_param":{"num_deleted":"0","num_feature":"12","num_nodes":"13","size_leaf_vector":"1"}},{"base_weights":[-5.567705E-3,-1.04729556E-1,4.4609725E-2,6.353033E-2,-1.4417726E-1,1.5377015E-1,1.4253907E-2,9.119015E-3,-6.636596E-3,4.279277E-3,-1.0320794E-2,1.5395238E-2,1.7409094E-3,2.407538E-3,-1.0026981E-2],"categories":[],"categories_nodes":[],"categories_segments":[],"categories_sizes":[],"default_left":[0,0,0,0,0,0,0,0,0,0,0,0,0,0,0],"id":30,"left_children":[1,3,5,7,9,11,13,-1,-1,-1,-1,-1,-1,-1,-1],"loss_changes":[2.0097759E0,9.679756E-1,7.764681E-1,6.563837E-1,1.725961E0,7.7893174E-1,1.472091E0,0E0,0E0,0E0,0E0,0E0,0E0,0E0,0E0],"parents":[2147483647,0,0,1,1,2,2,3,3,4,4,5,5,6,6],"right_children":[2,4,6,8,10,12,14,-1,-1,-1,-1,-1,-1,-1,-1],"split_conditions":[6.82E2,-4.4904475E0,2.0569313E2,1.1203275E2,8.6063257E2,3.12E1,1.898E3,9.119015E-3,-6.636596E-3,4.279277E-3,-1.0320794E-2,1.5395238E-2,1.7409094E-3,2.407538E-3,-1.0026981E-2],"split_indices":[4,10,1,6,1,2,4,0,0,0,0,0,0,0,0],"split_type":[0,0,0,0,0,0,0,0,0,0,0,0,0,0,0],"sum_hessian":[3.94E2,1.35E2,2.59E2,2.3E1,1.12E2,5.1E1,2.08E2,1.6E1,7E0,2.2E1,9E1,1.9E1,3.2E1,1.83E2,2.5E1],"tree_param":{"num_deleted":"0","num_feature":"12","num_nodes":"15","size_leaf_vector":"1"}},{"base_weights":[8.326087E-3,-1.8519747E-1,4.7204807E-2,-2.9423002E-2,-1.3036463E-1,2.484476E-1,2.0810362E-2,5.132723E-3,-8.9888675E-3,-5.3128828E-5,1.8915853E-2,-5.313854E-3,2.9388338E-3],"categories":[],"categories_nodes":[],"categories_segments":[],"categories_sizes":[],"default_left":[0,0,0,0,0,0,0,0,0,0,0,0,0],"id":31,"left_children":[1,3,5,-1,7,9,11,-1,-1,-1,-1,-1,-1],"loss_changes":[2.9053996E0,9.0232897E-1,1.6132002E0,0E0,7.6631784E-1,1.3559666E0,1.4217801E0,0E0,0E0,0E0,0E0,0E0,0E0],"parents":[2147483647,0,0,1,1,2,2,4,4,5,5,6,6],"right_children":[2,4,6,-1,8,10,12,-1,-1,-1,-1,-1,-1],"split_conditions":[3.6653481E3,4.242868E1,4.581575E3,-2.9423002E-2,1.77E1,3.8153076E3,8.09E2,5.132723E-3,-8.9888675E-3,-5.3128828E-5,1.8915853E-2,-5.313854E-3,2.9388338E-3],"split_indices":[8,6,8,0,2,8,4,0,0,0,0,0,0],"split_type":[0,0,0,0,0,0,0,0,0,0,0,0,0],"sum_hessian":[3.91E2,6.2E1,3.29E2,4E0,5.8E1,3.4E1,2.95E2,8E0,5E1,1.1E1,2.3E1,6.4E1,2.31E2],"tree_param":{"num_deleted":"0","num_feature":"12","num_nodes":"13","size_leaf_vector":"1"}},{"base_weights":[-8.97133E-4,-1.1437341E-1,4.025137E-2,-2.5783164E-2,-5.026426E-2,2.9757607E-1,2.2491435E-2,4.2821956E-3,-4.437679E-3,2.1619527E-2,-5.190293E-4,-2.5531964E-3,3.414056E-3],"categories":[],"categories_nodes":[],"categories_segments":[],"categories_sizes":[],"default_left":[0,0,0,0,0,0,0,0,0,0,0,0,0],"id":32,"left_children":[1,3,5,-1,7,9,11,-1,-1,-1,-1,-1,-1],"loss_changes":[1.9280281E0,2.5208223E0,1.1701812E0,0E0,5.3462756E-1,9.257711E-1,9.552755E-1,0E0,0E0,0E0,0E0,0E0,0E0],"parents":[2147483647,0,0,1,1,2,2,4,4,5,5,6,6],"right_children":[2,4,6,-1,8,10,12,-1,-1,-1,-1,-1,-1],"split_conditions":[6.06E2,4.077763E1,1.9E1,-2.5783164E-2,9.697268E0,1.06300575E2,1.9205347E1,4.2821956E-3,-4.437679E-3,2.1619527E-2,-5.190293E-4,-2.5531964E-3,3.414056E-3],"split_indices":[4,6,7,0,11,6,9,0,0,0,0,0,0],"split_type":[0,0,0,0,0,0,0,0,0,0,0,0,0],"sum_hessian":[4.01E2,1.09E2,2.92E2,1.2E1,9.7E1,1.5E1,2.77E2,1.8E1,7.9E1,1.1E1,4E0,1.02E2,1.75E2],"tree_param":{"num_deleted":"0","num_feature":"12","num_nodes":"13","size_leaf_vector":"1"}},{"base_weights":[4.986122E-3,-1.9579647E-2,2.1885632E-2,-1.2455008E-2,1.0588146E-1,1.1528045E-4,-1.3823646E-2,1.9667504E-2,3.6181621E-3],"categories":[],"categories_nodes":[],"categories_segments":[],"categories_sizes":[],"default_left":[0,0,0,0,0,0,0,0,0],"id":33,"left_children":[1,-1,3,5,7,-1,-1,-1,-1],"loss_changes":[2.4728715E0,0E0,1.148334E0,1.1827725E0,8.1829023E-1,0E0,0E0,0E0,0E0],"parents":[2147483647,0,0,2,2,3,3,4,4],"right_children":[2,-1,4,6,8,-1,-1,-1,-1],"split_conditions":[1.8393151E3,-1.9579647E-2,2.7E0,1.8E0,1.3175579E1,1.1528045E-4,-1.3823646E-2,1.9667504E-2,3.6181621E-3],"split_indices":[8,0,3,3,10,0,0,0,0],"split_type":[0,0,0,0,0,0,0,0,0],"sum_hessian":[3.92E2,1.3E1,3.79E2,2.66E2,1.13E2,2.52E2,1.4E1,8E0,1.05E2],"tree_param":{"num_deleted":"0","num_feature":"12","num_nodes":"9","size_leaf_vector":"1"}},{"base_weights":[-6.4319135E-3,-1.5355608E-1,4.609921E-2,-3.0382812E-2,-1.08250834E-1,7.377958E-2,-5.4727744E-2,-7.1239695E-3,1.0316905E-2,9.93497E-3,1.7525888E-3,4.6966607E-3,-1.1355411E-2],"categories":[],"categories_nodes":[],"categories_segments":[],"categories_sizes":[],"default_left":[0,0,0,0,0,0,0,0,0,0,0,0,0],"id":34,"left_children":[1,3,5,-1,7,9,11,-1,-1,-1,-1,-1,-1],"loss_changes":[3.0356674E0,1.6500919E0,8.046431E-1,0E0,1.0821251E0,9.625536E-1,1.595576E0,0E0,0E0,0E0,0E0,0E0,0E0],"parents":[2147483647,0,0,1,1,2,2,4,4,5,5,6,6],"right_children":[2,4,6,-1,8,10,12,-1,-1,-1,-1,-1,-1],"split_conditions":[6.07E2,3.5036907E1,1.898E3,-3.0382812E-2,1.2529952E2,5.745967E2,4.8121925E1,-7.1239695E-3,1.0316905E-2,9.93497E-3,1.7525888E-3,4.6966607E-3,-1.1355411E-2],"split_indices":[4,6,4,0,6,1,1,0,0,0,0,0,0],"split_type":[0,0,0,0,0,0,0,0,0,0,0,0,0],"sum_hessian":[3.82E2,1.02E2,2.8E2,6E0,9.6E1,2.24E2,5.6E1,8.9E1,7E0,4.8E1,1.76E2,2.9E1,2.7E1],"tree_param":{"num_deleted":"0","num_feature":"12","num_nodes":"13","size_leaf_vector":"1"}},{"base_weights":[8.221972E-4,-2.6252952E-1,2.275146E-2,-3.4536046E-1,-3.905638E-2,-6.672762E-2,4.961886E-2,-2.339413E-2,-1.804087E-3,-6.4745485E-3,5.6042674E-4,-7.7035124E-3,3.254462E-3,1.3313213E-2,1.729678E-3],"categories":[],"categories_nodes":[],"categories_segments":[],"categories_sizes":[],"default_left":[0,0,0,0,0,0,0,0,0,0,0,0,0,0,0],"id":35,"left_children":[1,3,5,7,9,11,13,-1,-1,-1,-1,-1,-1,-1,-1],"loss_changes":[2.265627E0,3.361292E-1,9.1882646E-1,4.7212362E-1,1.1659227E-1,1.0431716E0,8.0769753E-1,0E0,0E0,0E0,0E0,0E0,0E0,0E0,0E0],"parents":[2147483647,0,0,1,1,2,2,3,3,4,4,5,5,6,6],"right_children":[2,4,6,8,10,12,14,-1,-1,-1,-1,-1,-1,-1,-1],"split_conditions":[3.75E2,2.802728E3,2.36E1,1.7778425E1,-3.828546E0,7.871211E1,2.46E1,-2.339413E-2,-1.804087E-3,-6.4745485E-3,5.6042674E-4,-7.7035124E-3,3.254462E-3,1.3313213E-2,1.729678E-3],"split_indices":[4,8,2,9,10,6,2,0,0,0,0,0,0,0,0],"split_type":[0,0,0,0,0,0,0,0,0,0,0,0,0,0,0],"sum_hessian":[4.09E2,2.8E1,3.81E2,1.8E1,1E1,8.3E1,2.98E2,1.1E1,7E0,6E0,4E0,5.2E1,3.1E1,1.5E1,2.83E2],"tree_param":{"num_deleted":"0","num_feature":"12","num_nodes":"15","size_leaf_vector":"1"}},{"base_weights":[-3.0113574E-2,-3.3293426E-1,-9.664924E-3,-0E0,-4.0249863E-1,-3.8040656E-1,-0E0,-2.9757634E-2,-7.462915E-3,-0E0,-3.269234E-2,-3.7398466E-4,1.3057937E-2],"categories":[],"categories_nodes":[],"categories_segments":[],"categories_sizes":[],"default_left":[0,0,0,0,0,0,0,0,0,0,0,0,0],"id":36,"left_children":[1,3,5,-1,7,9,11,-1,-1,-1,-1,-1,-1],"loss_changes":[2.2310593E0,5.286577E-1,1.4127164E0,0E0,3.7709928E-1,1.1180024E0,7.6987964E-1,0E0,0E0,0E0,0E0,0E0,0E0],"parents":[2147483647,0,0,1,1,2,2,4,4,5,5,6,6],"right_children":[2,4,6,-1,8,10,12,-1,-1,-1,-1,-1,-1],"split_conditions":[3.22E2,-2.52E1,2.0715551E0,-0E0,-2.41E1,5.55E2,1.5016355E4,-2.9757634E-2,-7.462915E-3,-0E0,-3.269234E-2,-3.7398466E-4,1.3057937E-2],"split_indices":[4,3,9,0,3,4,8,0,0,0,0,0,0],"split_type":[0,0,0,0,0,0,0,0,0,0,0,0,0],"sum_hessian":[3.87E2,2.1E1,3.66E2,4E0,1.7E1,8E0,3.58E2,7E0,1E1,4E0,4E0,3.49E2,9E0],"tree_param":{"num_deleted":"0","num_feature":"12","num_nodes":"13","size_leaf_vector":"1"}},{"base_weights":[4.0175806E-4,-3.0083125E-2,6.908211E-2,-0E0,-1.4923541E-1,1.07945174E-1,-1.3891605E-1,1.9117659E-2,-7.422309E-4,-2.9666217E-3,-2.1740811E-2,-4.704827E-3,6.7381547E-3,-0E0,-1.159979E-2],"categories":[],"categories_nodes":[],"categories_segments":[],"categories_sizes":[],"default_left":[0,0,0,0,0,0,0,0,0,0,0,0,0,0,0],"id":37,"left_children":[1,3,5,7,9,11,13,-1,-1,-1,-1,-1,-1,-1,-1],"loss_changes":[8.5695344E-1,1.0233005E0,1.0491862E0,1.3620216E0,1.1647782E0,6.471305E-1,2.2538692E-1,0E0,0E0,0E0,0E0,0E0,0E0,0E0,0E0],"parents":[2147483647,0,0,1,1,2,2,3,3,4,4,5,5,6,6],"right_children":[2,4,6,8,10,12,14,-1,-1,-1,-1,-1,-1,-1,-1],"split_conditions":[1.4318166E1,1.364E3,8.5235146E1,6.41511E2,1.8E0,3.3197643E1,1.262E3,1.9117659E-2,-7.422309E-4,-2.9666217E-3,-2.1740811E-2,-4.704827E-3,6.7381547E-3,-0E0,-1.159979E-2],"split_indices":[10,4,6,1,3,1,4,0,0,0,0,0,0,0,0],"split_type":[0,0,0,0,0,0,0,0,0,0,0,0,0,0,0],"sum_hessian":[3.96E2,2.7E2,1.26E2,2.15E2,5.5E1,1.09E2,1.7E1,7E0,2.08E2,4.5E1,1E1,1E1,9.9E1,8E0,9E0],"tree_param":{"num_deleted":"0","num_feature":"12","num_nodes":"15","size_leaf_vector":"1"}},{"base_weights":[-1.9124279E-2,-2.7095985E-1,-8.999112E-4,3.5691945E-4,-3.6619824E-1,-3.6673564E-1,7.7108713E-3,-2.5559396E-2,-9.917895E-4,-0E0,-3.1577848E-2,6.3087353E-3,-4.246879E-4],"categories":[],"categories_nodes":[],"categories_segments":[],"categories_sizes":[],"default_left":[0,0,0,0,0,0,0,0,0,0,0,0,0],"id":38,"left_children":[1,3,5,-1,7,9,11,-1,-1,-1,-1,-1,-1],"loss_changes":[1.6902212E0,8.468988E-1,1.3664676E0,0E0,7.185881E-1,1.0482345E0,7.655E-1,0E0,0E0,0E0,0E0,0E0,0E0],"parents":[2147483647,0,0,1,1,2,2,4,4,5,5,6,6],"right_children":[2,4,6,-1,8,10,12,-1,-1,-1,-1,-1,-1],"split_conditions":[3.22E2,-2.53E1,2.0715551E0,3.5691945E-4,1.7778425E1,5.55E2,2.0569313E2,-2.5559396E-2,-9.917895E-4,-0E0,-3.1577848E-2,6.3087353E-3,-4.246879E-4],"split_indices":[4,3,9,0,9,4,1,0,0,0,0,0,0],"split_type":[0,0,0,0,0,0,0,0,0,0,0,0,0],"sum_hessian":[3.96E2,2.3E1,3.73E2,5E0,1.8E1,8E0,3.65E2,1.1E1,7E0,4E0,4E0,4.6E1,3.19E2],"tree_param":{"num_deleted":"0","num_feature":"12","num_nodes":"13","size_leaf_vector":"1"}},{"base_weights":[-3.1023135E-2,1.563154E-1,-5.7974108E-2,-1.6844463E-2,2.0681456E-1,-2.8432754E-1,-3.871159E-2,1.3012608E-3,-6.8716328E-3,1.1590085E-2,-0E0,-2.6798705E-3,-2.0288184E-2,-2.522311E-3,1.0114479E-2],"categories":[],"categories_nodes":[],"categories_segments":[],"categories_sizes":[],"default_left":[0,0,0,0,0,0,0,0,0,0,0,0,0,0,0],"id":39,"left_children":[1,3,5,7,9,11,13,-1,-1,-1,-1,-1,-1,-1,-1],"loss_changes":[1.8875568E0,5.041959E-1,1.2814728E0,1.1455292E-1,2.0154297E-1,3.9927948E-1,8.324982E-1,0E0,0E0,0E0,0E0,0E0,0E0,0E0,0E0],"parents":[2147483647,0,0,1,1,2,2,3,3,4,4,5,5,6,6],"right_children":[2,4,6,8,10,12,14,-1,-1,-1,-1,-1,-1,-1,-1],"split_conditions":[1.6797594E2,3.0708193E1,3.22E2,9.983356E3,1.66E2,1.4218268E3,1.2051197E2,1.3012608E-3,-6.8716328E-3,1.1590085E-2,-0E0,-2.6798705E-3,-2.0288184E-2,-2.522311E-3,1.0114479E-2],"split_indices":[1,1,4,8,5,1,6,0,0,0,0,0,0,0,0],"split_type":[0,0,0,0,0,0,0,0,0,0,0,0,0,0,0],"sum_hessian":[3.78E2,4.4E1,3.34E2,8E0,3.6E1,2.2E1,3.12E2,4E0,4E0,3.2E1,4E0,1E1,1.2E1,3.01E2,1.1E1],"tree_param":{"num_deleted":"0","num_feature":"12","num_nodes":"15","size_leaf_vector":"1"}},{"base_weights":[-8.125314E-3,-3.190237E-1,2.8163788E-3,-4.7433987E-1,-0E0,1.3246684E-1,-1.3798471E-2,-2.751299E-3,-3.2610357E-2,1.4511431E-2,3.526632E-4,-1.6277138E-2,-1.3596614E-4],"categories":[],"categories_nodes":[],"categories_segments":[],"categories_sizes":[],"default_left":[0,0,0,0,0,0,0,0,0,0,0,0,0],"id":40,"left_children":[1,3,5,7,-1,9,11,-1,-1,-1,-1,-1,-1],"loss_changes":[1.5035937E0,7.233412E-1,8.858648E-1,3.204291E-1,0E0,7.7718186E-1,9.980495E-1,0E0,0E0,0E0,0E0,0E0,0E0],"parents":[2147483647,0,0,1,1,2,2,3,3,5,5,6,6],"right_children":[2,4,6,8,-1,10,12,-1,-1,-1,-1,-1,-1],"split_conditions":[2.79E2,1.7778425E1,2.0569313E2,1.6789043E1,-0E0,1.01E2,3.227897E2,-2.751299E-3,-3.2610357E-2,1.4511431E-2,3.526632E-4,-1.6277138E-2,-1.3596614E-4],"split_indices":[4,9,1,11,0,5,1,0,0,0,0,0,0],"split_type":[0,0,0,0,0,0,0,0,0,0,0,0,0],"sum_hessian":[3.93E2,1.3E1,3.8E2,8E0,5E0,4.5E1,3.35E2,4E0,4E0,1.7E1,2.8E1,8E0,3.27E2],"tree_param":{"num_deleted":"0","num_feature":"12","num_nodes":"13","size_leaf_vector":"1"}},{"base_weights":[-2.0338757E-2,-2.4952605E-2,-6.1690477E-3,-3.117512E-1,7.7554425E-3,-5.891479E-3,-2.5569549E-2,7.87616E-3,-2.4037152E-4],"categories":[],"categories_nodes":[],"categories_segments":[],"categories_sizes":[],"default_left":[0,0,0,0,0,0,0,0,0],"id":41,"left_children":[1,-1,3,5,7,-1,-1,-1,-1],"loss_changes":[2.345992E0,0E0,1.7567418E0,2.6173604E-1,7.552172E-1,0E0,0E0,0E0,0E0],"parents":[2147483647,0,0,2,2,3,3,4,4],"right_children":[2,-1,4,6,8,-1,-1,-1,-1],"split_conditions":[2.0715551E0,-2.4952605E-2,2.3102275E3,1.4192675E3,5.0538235E0,-5.891479E-3,-2.5569549E-2,7.87616E-3,-2.4037152E-4],"split_indices":[9,0,8,1,11,0,0,0,0],"split_type":[0,0,0,0,0,0,0,0,0],"sum_hessian":[3.82E2,8E0,3.74E2,1.6E1,3.58E2,1.1E1,5E0,2.9E1,3.29E2],"tree_param":{"num_deleted":"0","num_feature":"12","num_nodes":"9","size_leaf_vector":"1"}},{"base_weights":[-2.3334513E-4,7.5737104E-2,-5.318232E-2,4.0563785E-2,2.145846E-1,-1.3776967E-1,-8.984908E-3,4.9444567E-3,-7.909077E-3,2.3987656E-2,-0E0,-1.3974692E-2,-5.152777E-4,-6.7873793E-3,9.527008E-4],"categories":[],"categories_nodes":[],"categories_segments":[],"categories_sizes":[],"default_left":[0,0,0,0,0,0,0,0,0,0,0,0,0,0,0],"id":42,"left_children":[1,3,5,7,9,11,13,-1,-1,-1,-1,-1,-1,-1,-1],"loss_changes":[1.5937337E0,6.3641346E-1,8.1765866E-1,1.5433602E0,1.6567699E0,1.2583898E0,6.4286894E-1,0E0,0E0,0E0,0E0,0E0,0E0,0E0,0E0],"parents":[2147483647,0,0,1,1,2,2,3,3,4,4,5,5,6,6],"right_children":[2,4,6,8,10,12,14,-1,-1,-1,-1,-1,-1,-1,-1],"split_conditions":[7.901068E2,1.0300186E1,-1.45E1,8.268124E1,6.41511E2,1.2999338E3,8.3641406E2,4.9444567E-3,-7.909077E-3,2.3987656E-2,-0E0,-1.3974692E-2,-5.152777E-4,-6.7873793E-3,9.527008E-4],"split_indices":[1,11,3,6,1,1,1,0,0,0,0,0,0,0,0],"split_type":[0,0,0,0,0,0,0,0,0,0,0,0,0,0,0],"sum_hessian":[3.95E2,1.58E2,2.37E2,1.31E2,2.7E1,7.6E1,1.61E2,1.04E2,2.7E1,1.1E1,1.6E1,3.3E1,4.3E1,3.1E1,1.3E2],"tree_param":{"num_deleted":"0","num_feature":"12","num_nodes":"15","size_leaf_vector":"1"}},{"base_weights":[6.907175E-3,-2.5610232E-1,2.5791656E-2,-3.2096535E-1,-0E0,-3.5016313E-2,8.258003E-2,-7.795709E-4,-1.9367224E-2,-5.165112E-4,-2.3645643E-2,3.0998632E-3,1.5820306E-2],"categories":[],"categories_nodes":[],"categories_segments":[],"categories_sizes":[],"default_left":[0,0,0,0,0,0,0,0,0,0,0,0,0],"id":43,"left_children":[1,3,5,7,-1,9,11,-1,-1,-1,-1,-1,-1],"loss_changes":[1.7953722E0,4.8625338E-1,1.272712E0,1.9186234E-1,0E0,1.5971099E0,6.908083E-1,0E0,0E0,0E0,0E0,0E0,0E0],"parents":[2147483647,0,0,1,1,2,2,3,3,5,5,6,6],"right_children":[2,4,6,8,-1,10,12,-1,-1,-1,-1,-1,-1],"split_conditions":[2.5153381E3,3.83E1,1.9002754E1,6E0,-0E0,1.8378595E1,1.2051197E2,-7.795709E-4,-1.9367224E-2,-5.165112E-4,-2.3645643E-2,3.0998632E-3,1.5820306E-2],"split_indices":[8,2,9,7,0,9,6,0,0,0,0,0,0],"split_type":[0,0,0,0,0,0,0,0,0,0,0,0,0],"sum_hessian":[3.8E2,2.2E1,3.58E2,1.8E1,4E0,1.69E2,1.89E2,5E0,1.3E1,1.63E2,6E0,1.78E2,1.1E1],"tree_param":{"num_deleted":"0","num_feature":"12","num_nodes":"13","size_leaf_vector":"1"}},{"base_weights":[-6.61545E-5,-3.347525E-1,1.4548889E-2,-1.10824145E-1,-2.6222846E-2,2.3763494E-3,2.5840557E-1,-1.48058385E-2,1.7351968E-3,-7.2536464E-3,7.5542455E-4,1.6928248E-2,-0E0],"categories":[],"categories_nodes":[],"categories_segments":[],"categories_sizes":[],"default_left":[0,0,0,0,0,0,0,0,0,0,0,0,0],"id":44,"left_children":[1,3,5,7,-1,9,11,-1,-1,-1,-1,-1,-1],"loss_changes":[2.097076E0,3.307581E-1,9.904192E-1,4.7484258E-1,0E0,6.2275505E-1,3.0713964E-1,0E0,0E0,0E0,0E0,0E0,0E0],"parents":[2147483647,0,0,1,1,2,2,3,3,5,5,6,6],"right_children":[2,4,6,8,-1,10,12,-1,-1,-1,-1,-1,-1],"split_conditions":[2.3102275E3,1.1155488E2,1.2146572E2,9.099308E1,-2.6222846E-2,3.309307E3,2.3725E1,-1.48058385E-2,1.7351968E-3,-7.2536464E-3,7.5542455E-4,1.6928248E-2,-0E0],"split_indices":[8,6,6,6,0,8,0,0,0,0,0,0,0],"split_type":[0,0,0,0,0,0,0,0,0,0,0,0,0],"sum_hessian":[3.92E2,1.6E1,3.76E2,1E1,6E0,3.62E2,1.4E1,5E0,5E0,2.4E1,3.38E2,1E1,4E0],"tree_param":{"num_deleted":"0","num_feature":"12","num_nodes":"13","size_leaf_vector":"1"}},{"base_weights":[-5.3597535E-3,-3.7382734E-1,5.696283E-3,-4.1795284E-3,-2.6364509E-2,-2.0583166E-2,1.6808439E-2,9.698082E-3,6.880593E-5],"categories":[],"categories_nodes":[],"categories_segments":[],"categories_sizes":[],"default_left":[0,0,0,0,0,0,0,0,0],"id":45,"left_children":[1,3,5,-1,-1,-1,7,-1,-1],"loss_changes":[1.8178408E0,1.8543386E-1,1.6205021E0,0E0,0E0,0E0,9.461413E-1,0E0,0E0],"parents":[2147483647,0,0,1,1,2,2,6,6],"right_children":[2,4,6,-1,-1,-1,8,-1,-1],"split_conditions":[2.79E2,1.7395533E1,2.0715551E0,-4.1795284E-3,-2.6364509E-2,-2.0583166E-2,-4.3350596E0,9.698082E-3,6.880593E-5],"split_indices":[4,11,9,0,0,0,10,0,0],"split_type":[0,0,0,0,0,0,0,0,0],"sum_hessian":[3.98E2,1.1E1,3.87E2,6E0,5E0,7E0,3.8E2,2.6E1,3.54E2],"tree_param":{"num_deleted":"0","num_feature":"12","num_nodes":"9","size_leaf_vector":"1"}},{"base_weights":[3.0341028E-4,-4.6443213E-2,5.0988786E-2,-1.9354496E-2,-2.1117714E-1,1.6769291E-1,-0E0,-5.8274938E-5,-1.265686E-2,-1.8903067E-2,2.4323065E-4,-0E0,1.2270303E-2,-3.5911575E-3,5.8054426E-3],"categories":[],"categories_nodes":[],"categories_segments":[],"categories_sizes":[],"default_left":[0,0,0,0,0,0,0,0,0,0,0,0,0,0,0],"id":46,"left_children":[1,3,5,7,9,11,13,-1,-1,-1,-1,-1,-1,-1,-1],"loss_changes":[9.54757E-1,7.8689563E-1,1.1162415E0,6.376677E-1,1.1276792E0,7.7795243E-1,1.2172272E0,0E0,0E0,0E0,0E0,0E0,0E0,0E0,0E0],"parents":[2147483647,0,0,1,1,2,2,3,3,4,4,5,5,6,6],"right_children":[2,4,6,8,10,12,14,-1,-1,-1,-1,-1,-1,-1,-1],"split_conditions":[2.81E1,2.75E1,3.03E1,2.011E3,-5.9E0,5.8E1,1.45E2,-5.8274938E-5,-1.265686E-2,-1.8903067E-2,2.4323065E-4,-0E0,1.2270303E-2,-3.5911575E-3,5.8054426E-3],"split_indices":[2,2,2,4,3,7,7,0,0,0,0,0,0,0,0],"split_type":[0,0,0,0,0,0,0,0,0,0,0,0,0,0,0],"sum_hessian":[3.98E2,2.02E2,1.96E2,1.78E2,2.4E1,5.6E1,1.4E2,1.69E2,9E0,1.4E1,1E1,1.8E1,3.8E1,8.5E1,5.5E1],"tree_param":{"num_deleted":"0","num_feature":"12","num_nodes":"15","size_leaf_vector":"1"}},{"base_weights":[-4.7829915E-3,-9.518375E-2,2.8838526E-2,-2.2227066E-2,-5.6798957E-2,2.8309703E-6,1.2735757E-1,4.6020257E-3,-4.6878555E-3,9.64267E-4,-2.1968E-2,2.394286E-4,1.135282E-2],"categories":[],"categories_nodes":[],"categories_segments":[],"categories_sizes":[],"default_left":[0,0,0,0,0,0,0,0,0,0,0,0,0],"id":47,"left_children":[1,3,5,-1,7,9,11,-1,-1,-1,-1,-1,-1],"loss_changes":[1.3000182E0,1.2678031E0,7.8857857E-1,0E0,6.1770785E-1,1.8232492E0,6.6398215E-1,0E0,0E0,0E0,0E0,0E0,0E0],"parents":[2147483647,0,0,1,1,2,2,4,4,5,5,6,6],"right_children":[2,4,6,-1,8,10,12,-1,-1,-1,-1,-1,-1],"split_conditions":[6.06E2,3.5036907E1,8.884138E0,-2.2227066E-2,9.468294E0,8.727207E0,7.9333786E1,4.6020257E-3,-4.6878555E-3,9.64267E-4,-2.1968E-2,2.394286E-4,1.135282E-2],"split_indices":[4,6,11,0,11,11,6,0,0,0,0,0,0],"split_type":[0,0,0,0,0,0,0,0,0,0,0,0,0],"sum_hessian":[4.13E2,1.15E2,2.98E2,8E0,1.07E2,2.36E2,6.2E1,1.8E1,8.9E1,2.29E2,7E0,3.1E1,3.1E1],"tree_param":{"num_deleted":"0","num_feature":"12","num_nodes":"13","size_leaf_vector":"1"}},{"base_weights":[-0E0,-1.3676485E-2,2.6604262E-1,-0E0,-2.1483651E-1,2.5765363E-2,-5.5932463E-3,-1.3174777E-2,4.76996E-4,-0E0,-1.3953633E-2],"categories":[],"categories_nodes":[],"categories_segments":[],"categories_sizes":[],"default_left":[0,0,0,0,0,0,0,0,0,0,0],"id":48,"left_children":[1,3,5,7,9,-1,-1,-1,-1,-1,-1],"loss_changes":[1.3449068E0,1.1291323E0,2.0125923E0,7.9521835E-1,4.3548954E-1,0E0,0E0,0E0,0E0,0E0,0E0],"parents":[2147483647,0,0,1,1,2,2,3,3,4,4],"right_children":[2,4,6,8,10,-1,-1,-1,-1,-1,-1],"split_conditions":[1.2051197E2,1.1220087E2,1.2776883E1,2.0715551E0,-2.62E1,2.5765363E-2,-5.5932463E-3,-1.3174777E-2,4.76996E-4,-0E0,-1.3953633E-2],"split_indices":[6,6,11,9,3,0,0,0,0,0,0],"split_type":[0,0,0,0,0,0,0,0,0,0,0],"sum_hessian":[3.93E2,3.77E2,1.6E1,3.53E2,2.4E1,1E1,6E0,9E0,3.44E2,5E0,1.9E1],"tree_param":{"num_deleted":"0","num_feature":"12","num_nodes":"11","size_leaf_vector":"1"}},{"base_weights":[-0E0,-6.529484E-2,3.3787686E-2,-2.682694E-1,-1.826938E-2,1.87311E-2,2.3853919E-2,-2.1805124E-2,-0E0,-3.6577096E-3,3.0843252E-3,-5.1554707E-3,1.9779133E-3],"categories":[],"categories_nodes":[],"categories_segments":[],"categories_sizes":[],"default_left":[0,0,0,0,0,0,0,0,0,0,0,0,0],"id":49,"left_children":[1,3,5,7,9,-1,11,-1,-1,-1,-1,-1,-1],"loss_changes":[8.974242E-1,1.1736796E0,6.8689024E-1,1.1255373E0,5.2819765E-1,0E0,5.007715E-1,0E0,0E0,0E0,0E0,0E0,0E0],"parents":[2147483647,0,0,1,1,2,2,3,3,4,4,6,6],"right_children":[2,4,6,8,10,-1,12,-1,-1,-1,-1,-1,-1],"split_conditions":[-1E1,3.7687927E1,5.05E2,6.58E2,5.14E2,1.87311E-2,2.5E1,-2.1805124E-2,-0E0,-3.6577096E-3,3.0843252E-3,-5.1554707E-3,1.9779133E-3],"split_indices":[3,6,4,4,4,0,7,0,0,0,0,0,0],"split_type":[0,0,0,0,0,0,0,0,0,0,0,0,0],"sum_hessian":[4.02E2,1.37E2,2.65E2,2.2E1,1.15E2,4E0,2.61E2,1.3E1,9E0,7.2E1,4.3E1,2.4E1,2.37E2],"tree_param":{"num_deleted":"0","num_feature":"12","num_nodes":"13","size_leaf_vector":"1"}},{"base_weights":[-1.3372765E-3,-6.2852725E-2,4.2811695E-2,-1.2779606E-2,-1.8021594E-1,1.5395479E-1,1.0101795E-2,-5.451659E-3,6.067717E-3,-1.2817155E-2,5.5167913E-3,-2.1069369E-4,1.1361483E-2,-1.6414115E-2,1.621748E-3],"categories":[],"categories_nodes":[],"categories_segments":[],"categories_sizes":[],"default_left":[0,0,0,0,0,0,0,0,0,0,0,0,0,0,0],"id":50,"left_children":[1,3,5,7,9,11,13,-1,-1,-1,-1,-1,-1,-1,-1],"loss_changes":[1.0908762E0,9.03819E-1,7.4011505E-1,1.6341617E0,1.1912773E0,6.697327E-1,1.241223E0,0E0,0E0,0E0,0E0,0E0,0E0,0E0,0E0],"parents":[2147483647,0,0,1,1,2,2,3,3,4,4,5,5,6,6],"right_children":[2,4,6,8,10,12,14,-1,-1,-1,-1,-1,-1,-1,-1],"split_conditions":[5.860299E3,5.0511763E3,6.608639E3,3.8153076E3,3.4E1,2.2960882E0,6.738782E3,-5.451659E-3,6.067717E-3,-1.2817155E-2,5.5167913E-3,-2.1069369E-4,1.1361483E-2,-1.6414115E-2,1.621748E-3],"split_indices":[8,8,8,8,5,10,8,0,0,0,0,0,0,0,0],"split_type":[0,0,0,0,0,0,0,0,0,0,0,0,0,0,0],"sum_hessian":[3.94E2,1.69E2,2.25E2,1.23E2,4.6E1,4.6E1,1.79E2,7.4E1,4.9E1,3.8E1,8E0,1.3E1,3.3E1,8E0,1.71E2],"tree_param":{"num_deleted":"0","num_feature":"12","num_nodes":"15","size_leaf_vector":"1"}},{"base_weights":[-7.0047104E-3,-4.0125545E-2,7.619685E-2,-5.102309E-2,2.010889E-1,-8.317751E-2,1.2128917E-1,-1.240841E-3,-9.582955E-3,2.4717923E-2,-1.8155201E-3,5.680038E-3,-2.058547E-2,8.320923E-3,-5.4267324E-3],"categories":[],"categories_nodes":[],"categories_segments":[],"categories_sizes":[],"default_left":[0,0,0,0,0,0,0,0,0,0,0,0,0,0,0],"id":51,"left_children":[1,3,5,7,9,11,13,-1,-1,-1,-1,-1,-1,-1,-1],"loss_changes":[1.0876057E0,7.104233E-1,8.297545E-1,9.21573E-1,1.0307665E0,1.729498E0,9.881551E-1,0E0,0E0,0E0,0E0,0E0,0E0,0E0,0E0],"parents":[2147483647,0,0,1,1,2,2,3,3,4,4,5,5,6,6],"right_children":[2,4,6,8,10,12,14,-1,-1,-1,-1,-1,-1,-1,-1],"split_conditions":[3.7E1,1.3268661E2,2.63E1,1.1220087E2,1.3678036E2,7.4003687E0,8.752881E0,-1.240841E-3,-9.582955E-3,2.4717923E-2,-1.8155201E-3,5.680038E-3,-2.058547E-2,8.320923E-3,-5.4267324E-3],"split_indices":[5,6,2,6,6,10,11,0,0,0,0,0,0,0,0],"split_type":[0,0,0,0,0,0,0,0,0,0,0,0,0,0,0],"sum_hessian":[3.97E2,2.89E2,1.08E2,2.8E2,9E0,2.1E1,8.7E1,2.41E2,3.9E1,4E0,5E0,1.3E1,8E0,7.5E1,1.2E1],"tree_param":{"num_deleted":"0","num_feature":"12","num_nodes":"15","size_leaf_vector":"1"}},{"base_weights":[6.793707E-3,-1.8024588E-1,1.8036272E-2,-3.1228554E-1,-0E0,3.644684E-3,1.4787844E-1,-0E0,-2.3010751E-2,7.1547553E-4,-1.3817794E-2,1.2686755E-2,-2.340732E-3],"categories":[],"categories_nodes":[],"categories_segments":[],"categories_sizes":[],"default_left":[0,0,0,0,0,0,0,0,0,0,0,0,0],"id":52,"left_children":[1,3,5,7,-1,9,11,-1,-1,-1,-1,-1,-1],"loss_changes":[7.5390214E-1,6.1801773E-1,6.2576723E-1,6.383916E-1,0E0,9.04124E-1,8.279424E-1,0E0,0E0,0E0,0E0,0E0,0E0],"parents":[2147483647,0,0,1,1,2,2,3,3,5,5,6,6],"right_children":[2,4,6,8,-1,10,12,-1,-1,-1,-1,-1,-1],"split_conditions":[3.22E2,-2.41E1,1.2999338E3,-2.53E1,-0E0,1.235014E3,1.5834119E3,-0E0,-2.3010751E-2,7.1547553E-4,-1.3817794E-2,1.2686755E-2,-2.340732E-3],"split_indices":[4,3,1,3,0,1,1,0,0,0,0,0,0],"split_type":[0,0,0,0,0,0,0,0,0,0,0,0,0],"sum_hessian":[3.92E2,1.8E1,3.74E2,1.1E1,7E0,3.42E2,3.2E1,4E0,7E0,3.33E2,9E0,2.2E1,1E1],"tree_param":{"num_deleted":"0","num_feature":"12","num_nodes":"13","size_leaf_vector":"1"}},{"base_weights":[-8.040538E-4,-8.86175E-2,1.7052505E-2,-3.3855576E-2,-2.658329E-2,4.6345796E-3,2.3126438E-2,3.2103292E-3,-7.0600905E-3,-5.474047E-5,1.9885993E-2],"categories":[],"categories_nodes":[],"categories_segments":[],"categories_sizes":[],"default_left":[0,0,0,0,0,0,0,0,0,0,0],"id":53,"left_children":[1,3,5,7,-1,9,-1,-1,-1,-1,-1],"loss_changes":[6.785676E-1,1.4766408E0,1.6208463E0,7.829655E-1,0E0,9.423891E-1,0E0,0E0,0E0,0E0,0E0],"parents":[2147483647,0,0,1,1,2,2,3,3,5,5],"right_children":[2,4,6,8,-1,10,-1,-1,-1,-1,-1],"split_conditions":[3.8931821E3,7.3E1,1.2051197E2,1.1203275E2,-2.658329E-2,1.7555296E1,2.3126438E-2,3.2103292E-3,-7.0600905E-3,-5.474047E-5,1.9885993E-2],"split_indices":[8,7,6,6,0,11,0,0,0,0,0],"split_type":[0,0,0,0,0,0,0,0,0,0,0],"sum_hessian":[4.06E2,7.2E1,3.34E2,6.7E1,5E0,3.28E2,6E0,3.3E1,3.4E1,3.24E2,4E0],"tree_param":{"num_deleted":"0","num_feature":"12","num_nodes":"11","size_leaf_vector":"1"}},{"base_weights":[2.466552E-4,-2.8889427E-1,1.0556259E-2,-1.7980356E-2,-7.4895227E-4,-6.281287E-2,3.2476705E-2,-5.1781093E-3,4.0279683E-3,1.2190876E-2,7.430059E-4],"categories":[],"categories_nodes":[],"categories_segments":[],"categories_sizes":[],"default_left":[0,0,0,0,0,0,0,0,0,0,0],"id":54,"left_children":[1,3,5,-1,-1,7,9,-1,-1,-1,-1],"loss_changes":[1.044397E0,3.4365654E-2,6.081011E-1,0E0,0E0,5.189421E-1,9.915153E-1,0E0,0E0,0E0,0E0],"parents":[2147483647,0,0,1,1,2,2,5,5,6,6],"right_children":[2,4,6,-1,-1,8,10,-1,-1,-1,-1],"split_conditions":[2.79E2,2.9666667E0,2.36E1,-1.7980356E-2,-7.4895227E-4,1.4840403E1,2.47E1,-5.1781093E-3,4.0279683E-3,1.2190876E-2,7.430059E-4],"split_indices":[4,0,2,0,0,11,2,0,0,0,0],"split_type":[0,0,0,0,0,0,0,0,0,0,0],"sum_hessian":[3.93E2,1E1,3.83E2,6E0,4E0,8.2E1,3.01E2,6.7E1,1.5E1,1.9E1,2.82E2],"tree_param":{"num_deleted":"0","num_feature":"12","num_nodes":"11","size_leaf_vector":"1"}},{"base_weights":[6.529774E-3,-2.8670812E-1,1.858298E-2,-2.7059828E-4,-1.9311277E-2,-1.8235204E-1,3.0342868E-2,-2.3395851E-2,1.0273516E-3,8.194437E-5,4.2605037E-3],"categories":[],"categories_nodes":[],"categories_segments":[],"categories_sizes":[],"default_left":[0,0,0,0,0,0,0,0,0,0,0],"id":55,"left_children":[1,3,5,-1,-1,7,9,-1,-1,-1,-1],"loss_changes":[1.2656345E0,1.9191504E-1,8.3535445E-1,0E0,0E0,1.34379E0,5.2956235E-1,0E0,0E0,0E0,0E0],"parents":[2147483647,0,0,1,1,2,2,5,5,6,6],"right_children":[2,4,6,-1,-1,8,10,-1,-1,-1,-1],"split_conditions":[1.8393151E3,6E0,4.14739E0,-2.7059828E-4,-1.9311277E-2,2.14E1,2.7E0,-2.3395851E-2,1.0273516E-3,8.194437E-5,4.2605037E-3],"split_indices":[8,7,9,0,0,2,3,0,0,0,0],"split_type":[0,0,0,0,0,0,0,0,0,0,0],"sum_hessian":[3.91E2,1.2E1,3.79E2,5E0,7E0,1.7E1,3.62E2,7E0,1E1,2.45E2,1.17E2],"tree_param":{"num_deleted":"0","num_feature":"12","num_nodes":"11","size_leaf_vector":"1"}},{"base_weights":[-7.2551747E-3,-1.1862946E-1,1.4235381E-2,-5.8828887E-2,-3.287198E-1,3.0131356E-3,1.4446644E-1,-6.214579E-3,6.4476333E-3,-2.4568627E-2,-2.085936E-3,-5.0810906E-3,1.2747081E-3,-0E0,2.0194322E-2],"categories":[],"categories_nodes":[],"categories_segments":[],"categories_sizes":[],"default_left":[0,0,0,0,0,0,0,0,0,0,0,0,0,0,0],"id":56,"left_children":[1,3,5,7,9,11,13,-1,-1,-1,-1,-1,-1,-1,-1],"loss_changes":[1.0177597E0,6.344324E-1,4.149871E-1,7.427009E-1,2.9931498E-1,7.057402E-1,8.2497126E-1,0E0,0E0,0E0,0E0,0E0,0E0,0E0,0E0],"parents":[2147483647,0,0,1,1,2,2,3,3,4,4,5,5,6,6],"right_children":[2,4,6,8,10,12,14,-1,-1,-1,-1,-1,-1,-1,-1],"split_conditions":[3.0125E0,1.48407755E1,1.1940635E2,1.1465386E1,3.2309534E3,2.5E1,3.8931821E3,-6.214579E-3,6.4476333E-3,-2.4568627E-2,-2.085936E-3,-5.0810906E-3,1.2747081E-3,-0E0,2.0194322E-2],"split_indices":[0,9,6,9,8,7,8,0,0,0,0,0,0,0,0],"split_type":[0,0,0,0,0,0,0,0,0,0,0,0,0,0,0],"sum_hessian":[4E2,6.7E1,3.33E2,5.6E1,1.1E1,3.12E2,2.1E1,4.4E1,1.2E1,5E0,6E0,5E1,2.62E2,1.5E1,6E0],"tree_param":{"num_deleted":"0","num_feature":"12","num_nodes":"15","size_leaf_vector":"1"}},{"base_weights":[1.7995847E-3,-5.314504E-2,6.5367416E-2,-1.7906907E-1,-2.2171635E-2,1.0337686E-1,-2.6209684E-2,-1.6138388E-2,-0E0,-0E0,-1.5217117E-2,3.6697001E-3,1.5006025E-2,-1.08265495E-2,2.8259086E-3],"categories":[],"categories_nodes":[],"categories_segments":[],"categories_sizes":[],"default_left":[0,0,0,0,0,0,0,0,0,0,0,0,0,0,0],"id":57,"left_children":[1,3,5,7,9,11,13,-1,-1,-1,-1,-1,-1,-1,-1],"loss_changes":[1.3682308E0,6.9099987E-1,6.8794954E-1,8.971484E-1,1.1205466E0,5.655452E-1,9.232156E-1,0E0,0E0,0E0,0E0,0E0,0E0,0E0,0E0],"parents":[2147483647,0,0,1,1,2,2,3,3,4,4,5,5,6,6],"right_children":[2,4,6,8,10,12,14,-1,-1,-1,-1,-1,-1,-1,-1],"split_conditions":[6.3263584E3,4.077763E1,1.91E2,9.9E1,1.8588795E1,1.16E1,2.77E1,-1.6138388E-2,-0E0,-0E0,-1.5217117E-2,3.6697001E-3,1.5006025E-2,-1.08265495E-2,2.8259086E-3],"split_indices":[8,6,7,7,10,3,2,0,0,0,0,0,0,0,0],"split_type":[0,0,0,0,0,0,0,0,0,0,0,0,0,0,0],"sum_hessian":[3.86E2,2.03E2,1.83E2,3.5E1,1.68E2,1.33E2,5E1,1.8E1,1.7E1,1.57E2,1.1E1,1.2E2,1.3E1,1.6E1,3.4E1],"tree_param":{"num_deleted":"0","num_feature":"12","num_nodes":"15","size_leaf_vector":"1"}},{"base_weights":[1.8955301E-3,-1.7924031E-2,9.716364E-3,1.5992607E-1,-2.8930812E-3,-1.3666392E-3,1.54688805E-2,-1.4383632E-2,2.7898955E-4],"categories":[],"categories_nodes":[],"categories_segments":[],"categories_sizes":[],"default_left":[0,0,0,0,0,0,0,0,0],"id":58,"left_children":[1,-1,3,5,7,-1,-1,-1,-1],"loss_changes":[9.3459487E-1,0E0,8.105494E-1,1.0814769E0,1.0008365E0,0E0,0E0,0E0,0E0],"parents":[2147483647,0,0,2,2,3,3,4,4],"right_children":[2,-1,4,6,8,-1,-1,-1,-1],"split_conditions":[1.0773074E3,-1.7924031E-2,-4.3350596E0,-7.107738E0,-3.7658587E0,-1.3666392E-3,1.54688805E-2,-1.4383632E-2,2.7898955E-4],"split_indices":[8,0,10,10,10,0,0,0,0],"split_type":[0,0,0,0,0,0,0,0,0],"sum_hessian":[3.89E2,5E0,3.84E2,3.1E1,3.53E2,1.3E1,1.8E1,1E1,3.43E2],"tree_param":{"num_deleted":"0","num_feature":"12","num_nodes":"9","size_leaf_vector":"1"}},{"base_weights":[1.0729098E-2,-1.5848268E-2,1.0262051E-1,-2.6265545E-2,2.2379217E-1,3.060252E-1,1.6995335E-2,-5.3000316E-4,-1.34897325E-2,2.0363519E-2,-0E0,-0E0,1.8040156E-2,5.582969E-3,-8.8484E-3],"categories":[],"categories_nodes":[],"categories_segments":[],"categories_sizes":[],"default_left":[0,0,0,0,0,0,0,0,0,0,0,0,0,0,0],"id":59,"left_children":[1,3,5,7,9,11,13,-1,-1,-1,-1,-1,-1,-1,-1],"loss_changes":[1.0210894E0,6.793877E-1,1.4652447E0,9.9095315E-1,6.101718E-1,4.2899823E-1,1.2921607E0,0E0,0E0,0E0,0E0,0E0,0E0,0E0,0E0],"parents":[2147483647,0,0,1,1,2,2,3,3,4,4,5,5,6,6],"right_children":[2,4,6,8,10,12,14,-1,-1,-1,-1,-1,-1,-1,-1],"split_conditions":[3.9E1,1.2955042E2,1.556E3,1.909E3,1.3678036E2,2.8046255E1,7.851263E2,-5.3000316E-4,-1.34897325E-2,2.0363519E-2,-0E0,-0E0,1.8040156E-2,5.582969E-3,-8.8484E-3],"split_indices":[5,6,4,4,6,6,1,0,0,0,0,0,0,0,0],"split_type":[0,0,0,0,0,0,0,0,0,0,0,0,0,0,0],"sum_hessian":[3.97E2,3.05E2,9.2E1,2.96E2,9E0,2.4E1,6.8E1,2.82E2,1.4E1,5E0,4E0,4E0,2E1,4.8E1,2E1],"tree_param":{"num_deleted":"0","num_feature":"12","num_nodes":"15","size_leaf_vector":"1"}},{"base_weights":[-1.403744E-2,-7.573769E-2,5.3057894E-2,-2.4329258E-2,-5.861435E-2,2.1827592E-2,3.497782E-2,-1.671408E-3,-1.0558907E-2,-9.5173335E-3,2.5199512E-3],"categories":[],"categories_nodes":[],"categories_segments":[],"categories_sizes":[],"default_left":[0,0,0,0,0,0,0,0,0,0,0],"id":60,"left_children":[1,3,5,-1,7,-1,9,-1,-1,-1,-1],"loss_changes":[1.6587373E0,1.1547602E0,1.0302789E0,0E0,6.551334E-1,0E0,5.8162177E-1,0E0,0E0,0E0,0E0],"parents":[2147483647,0,0,1,1,2,2,4,4,6,6],"right_children":[2,4,6,-1,8,-1,10,-1,-1,-1,-1],"split_conditions":[1.3816667E1,2.0715551E0,-1.7E0,-2.4329258E-2,1.2145833E1,2.1827592E-2,3.3197643E1,-1.671408E-3,-1.0558907E-2,-9.5173335E-3,2.5199512E-3],"split_indices":[0,9,3,0,0,0,1,0,0,0,0],"split_type":[0,0,0,0,0,0,0,0,0,0,0],"sum_hessian":[3.94E2,2.09E2,1.85E2,5E0,2.04E2,5E0,1.8E2,1.8E2,2.4E1,8E0,1.72E2],"tree_param":{"num_deleted":"0","num_feature":"12","num_nodes":"11","size_leaf_vector":"1"}},{"base_weights":[-7.088605E-3,-3.365643E-2,6.335682E-2,-2.1668239E-2,-2.7809298E-1,1.7167443E-1,-2.8910369E-2,3.0331092E-4,-5.514658E-3,-2.3620926E-2,-0E0,1.261051E-2,1.3229433E-3,-1.0087613E-2,2.1067525E-3],"categories":[],"categories_nodes":[],"categories_segments":[],"categories_sizes":[],"default_left":[0,0,0,0,0,0,0,0,0,0,0,0,0,0,0],"id":61,"left_children":[1,3,5,7,9,11,13,-1,-1,-1,-1,-1,-1,-1,-1],"loss_changes":[7.511481E-1,7.2303414E-1,1.1506836E0,7.711771E-1,6.3422626E-1,4.554615E-1,7.967488E-1,0E0,0E0,0E0,0E0,0E0,0E0,0E0,0E0],"parents":[2147483647,0,0,1,1,2,2,3,3,4,4,5,5,6,6],"right_children":[2,4,6,8,10,12,14,-1,-1,-1,-1,-1,-1,-1,-1],"split_conditions":[3.7E1,2.0764576E1,6.2E1,2.4E1,2.2086016E1,7.9938087E0,2.77E1,3.0331092E-4,-5.514658E-3,-2.3620926E-2,-0E0,1.261051E-2,1.3229433E-3,-1.0087613E-2,2.1067525E-3],"split_indices":[5,10,5,5,10,11,2,0,0,0,0,0,0,0,0],"split_type":[0,0,0,0,0,0,0,0,0,0,0,0,0,0,0],"sum_hessian":[4.05E2,3E2,1.05E2,2.9E2,1E1,5E1,5.5E1,2.18E2,7.2E1,5E0,5E0,2.9E1,2.1E1,1.7E1,3.8E1],"tree_param":{"num_deleted":"0","num_feature":"12","num_nodes":"15","size_leaf_vector":"1"}},{"base_weights":[3.5614276E-3,-1.8396771E-1,1.9169906E-2,-0E0,-2.3798122E-1,4.833618E-3,1.6943769E-1,-2.033009E-3,-2.083172E-2,1.1315265E-3,-6.5129134E-3,-0E0,1.901635E-2],"categories":[],"categories_nodes":[],"categories_segments":[],"categories_sizes":[],"default_left":[0,0,0,0,0,0,0,0,0,0,0,0,0],"id":62,"left_children":[1,3,5,-1,7,9,11,-1,-1,-1,-1,-1,-1],"loss_changes":[1.1159616E0,2.644918E-1,7.298536E-1,0E0,5.130167E-1,7.983666E-1,1.1638067E0,0E0,0E0,0E0,0E0,0E0,0E0],"parents":[2147483647,0,0,1,1,2,2,4,4,5,5,6,6],"right_children":[2,4,6,-1,8,10,12,-1,-1,-1,-1,-1,-1],"split_conditions":[3.75E2,-2.52E1,1.5215095E1,-0E0,1.4192675E3,1.1716257E1,1E1,-2.033009E-3,-2.083172E-2,1.1315265E-3,-6.5129134E-3,-0E0,1.901635E-2],"split_indices":[4,3,11,0,1,11,7,0,0,0,0,0,0],"split_type":[0,0,0,0,0,0,0,0,0,0,0,0,0],"sum_hessian":[4.05E2,2.7E1,3.78E2,7E0,2E1,3.5E2,2.8E1,1.2E1,8E0,3.14E2,3.6E1,1.6E1,1.2E1],"tree_param":{"num_deleted":"0","num_feature":"12","num_nodes":"13","size_leaf_vector":"1"}},{"base_weights":[4.7291364E-3,-1.2111667E-1,3.3820476E-2,-1.8528193E-2,-2.883972E-1,1.605186E-1,8.259582E-3,-4.833593E-3,1.2387605E-2,-0E0,-1.978775E-2,2.2198518E-3,1.790634E-2,-1.2449327E-2,1.7849304E-3],"categories":[],"categories_nodes":[],"categories_segments":[],"categories_sizes":[],"default_left":[0,0,0,0,0,0,0,0,0,0,0,0,0,0,0],"id":63,"left_children":[1,3,5,7,9,11,13,-1,-1,-1,-1,-1,-1,-1,-1],"loss_changes":[1.4033263E0,1.0542852E0,9.6223867E-1,9.711508E-1,5.8325005E-1,9.372139E-1,1.8522432E0,0E0,0E0,0E0,0E0,0E0,0E0,0E0,0E0],"parents":[2147483647,0,0,1,1,2,2,3,3,4,4,5,5,6,6],"right_children":[2,4,6,8,10,12,14,-1,-1,-1,-1,-1,-1,-1,-1],"split_conditions":[3.8153076E3,5.05E2,5.0511763E3,4.34E2,2.6500608E3,5.86E2,5.4020166E3,-4.833593E-3,1.2387605E-2,-0E0,-1.978775E-2,2.2198518E-3,1.790634E-2,-1.2449327E-2,1.7849304E-3],"split_indices":[8,4,8,4,8,4,8,0,0,0,0,0,0,0,0],"split_type":[0,0,0,0,0,0,0,0,0,0,0,0,0,0,0],"sum_hessian":[3.91E2,6.9E1,3.22E2,4.6E1,2.3E1,4.9E1,2.73E2,3.8E1,8E0,8E0,1.5E1,3.4E1,1.5E1,2.3E1,2.5E2],"tree_param":{"num_deleted":"0","num_feature":"12","num_nodes":"15","size_leaf_vector":"1"}},{"base_weights":[-0E0,-4.9966816E-2,3.9307002E-2,-2.2301475E-2,-2.4845053E-1,2.4424954E-1,2.1660857E-2,-2.531524E-3,6.3320496E-3,-1.7895494E-2,1.2340666E-3,-0E0,1.9264428E-2,-1.6387776E-2,1.8015065E-3],"categories":[],"categories_nodes":[],"categories_segments":[],"categories_sizes":[],"default_left":[0,0,0,0,0,0,0,0,0,0,0,0,0,0,0],"id":64,"left_children":[1,3,5,7,9,11,13,-1,-1,-1,-1,-1,-1,-1,-1],"loss_changes":[7.768284E-1,8.1448835E-1,6.5208155E-1,6.414824E-1,7.5232136E-1,4.4115794E-1,9.1707325E-1,0E0,0E0,0E0,0E0,0E0,0E0,0E0,0E0],"parents":[2147483647,0,0,1,1,2,2,3,3,4,4,5,5,6,6],"right_children":[2,4,6,8,10,12,14,-1,-1,-1,-1,-1,-1,-1,-1],"split_conditions":[5.9706265E3,1.34E3,6.2040913E3,1.1940635E2,2.6345833E1,2.84E1,6.258313E3,-2.531524E-3,6.3320496E-3,-1.7895494E-2,1.2340666E-3,-0E0,1.9264428E-2,-1.6387776E-2,1.8015065E-3],"split_indices":[8,4,8,6,0,2,8,0,0,0,0,0,0,0,0],"split_type":[0,0,0,0,0,0,0,0,0,0,0,0,0,0,0],"sum_hessian":[3.91E2,1.73E2,2.18E2,1.56E2,1.7E1,1.3E1,2.05E2,1.35E2,2.1E1,1.3E1,4E0,6E0,7E0,5E0,2E2],"tree_param":{"num_deleted":"0","num_feature":"12","num_nodes":"15","size_leaf_vector":"1"}},{"base_weights":[-8.665099E-3,-2.1947588E-1,1.7697067E-3,-0E0,-1.4312639E-2,-1.2305344E-2,1.2362442E-1,-1.3264603E-3,1.1457362E-2,1.1041682E-2,-2.6971975E-3],"categories":[],"categories_nodes":[],"categories_segments":[],"categories_sizes":[],"default_left":[0,0,0,0,0,0,0,0,0,0,0],"id":65,"left_children":[1,3,5,-1,-1,7,9,-1,-1,-1,-1],"loss_changes":[9.8293847E-1,2.1754658E-1,7.070141E-1,0E0,0E0,1.0682379E0,8.4950525E-1,0E0,0E0,0E0,0E0],"parents":[2147483647,0,0,1,1,2,2,5,5,6,6],"right_children":[2,4,6,-1,-1,8,10,-1,-1,-1,-1],"split_conditions":[2.3102275E3,2E0,1.2999338E3,-0E0,-1.4312639E-2,1.2051197E2,1.5834119E3,-1.3264603E-3,1.1457362E-2,1.1041682E-2,-2.6971975E-3],"split_indices":[8,5,1,0,0,6,1,0,0,0,0],"split_type":[0,0,0,0,0,0,0,0,0,0,0],"sum_hessian":[3.95E2,1.9E1,3.76E2,6E0,1.3E1,3.35E2,4.1E1,3.2E2,1.5E1,2.8E1,1.3E1],"tree_param":{"num_deleted":"0","num_feature":"12","num_nodes":"11","size_leaf_vector":"1"}},{"base_weights":[2.918564E-2,-1.2265141E-2,3.5307527E-2,4.314781E-2,-1.7457266E-1,4.0635047E-4,5.127085E-3,-2.109436E-2,2.5595597E-3],"categories":[],"categories_nodes":[],"categories_segments":[],"categories_sizes":[],"default_left":[0,0,0,0,0,0,0,0,0],"id":66,"left_children":[1,-1,3,5,7,-1,-1,-1,-1],"loss_changes":[5.693557E-1,0E0,5.8452326E-1,7.25087E-1,8.9855814E-1,0E0,0E0,0E0,0E0],"parents":[2147483647,0,0,2,2,3,3,4,4],"right_children":[2,-1,4,6,8,-1,-1,-1,-1],"split_conditions":[1.0773074E3,-1.2265141E-2,3.0894022E1,8.884138E0,7.9333786E1,4.0635047E-4,5.127085E-3,-2.109436E-2,2.5595597E-3],"split_indices":[8,0,9,11,6,0,0,0,0],"split_type":[0,0,0,0,0,0,0,0,0],"sum_hessian":[3.89E2,5E0,3.84E2,3.74E2,1E1,2.42E2,1.32E2,5E0,5E0],"tree_param":{"num_deleted":"0","num_feature":"12","num_nodes":"9","size_leaf_vector":"1"}},{"base_weights":[-0E0,-9.847407E-2,2.2685599E-2,-2.2608755E-2,-3.9682295E-2,2.1254009E-1,1.0783713E-2,-1.5161601E-2,-0E0,-3.3806325E-3,1.738022E-2,-3.612388E-3,2.0765301E-3],"categories":[],"categories_nodes":[],"categories_segments":[],"categories_sizes":[],"default_left":[0,0,0,0,0,0,0,0,0,0,0,0,0],"id":67,"left_children":[1,3,5,-1,7,9,11,-1,-1,-1,-1,-1,-1],"loss_changes":[8.7875074E-1,1.2361985E0,6.339501E-1,0E0,6.316681E-1,8.302577E-1,7.999305E-1,0E0,0E0,0E0,0E0,0E0,0E0],"parents":[2147483647,0,0,1,1,2,2,4,4,5,5,6,6],"right_children":[2,4,6,-1,8,10,12,-1,-1,-1,-1,-1,-1],"split_conditions":[3.8153076E3,8.7372E0,4.279262E3,-2.2608755E-2,1.0773074E3,3E0,8.09E2,-1.5161601E-2,-0E0,-3.3806325E-3,1.738022E-2,-3.612388E-3,2.0765301E-3],"split_indices":[8,11,8,0,8,5,4,0,0,0,0,0,0],"split_type":[0,0,0,0,0,0,0,0,0,0,0,0,0],"sum_hessian":[4.01E2,7.1E1,3.3E2,7E0,6.4E1,1.5E1,3.15E2,6E0,5.8E1,4E0,1.1E1,8E1,2.35E2],"tree_param":{"num_deleted":"0","num_feature":"12","num_nodes":"13","size_leaf_vector":"1"}},{"base_weights":[4.4310935E-5,-8.791837E-2,3.4950346E-2,-2.0585133E-2,-5.2723322E-2,9.0230115E-2,-2.4107955E-3,1.1250795E-3,-6.6276984E-3,7.6213735E-3,-9.750588E-4,4.5550563E-3,-2.3717156E-3],"categories":[],"categories_nodes":[],"categories_segments":[],"categories_sizes":[],"default_left":[0,0,0,0,0,0,0,0,0,0,0,0,0],"id":68,"left_children":[1,3,5,-1,7,9,11,-1,-1,-1,-1,-1,-1],"loss_changes":[1.1955513E0,9.6649504E-1,6.412208E-1,0E0,6.7352736E-1,9.050578E-1,6.98339E-1,0E0,0E0,0E0,0E0,0E0,0E0],"parents":[2147483647,0,0,1,1,2,2,4,4,5,5,6,6],"right_children":[2,4,6,-1,8,10,12,-1,-1,-1,-1,-1,-1],"split_conditions":[6.06E2,3.5036907E1,1.251E3,-2.0585133E-2,1.4077209E1,1.3175579E1,3.394983E2,1.1250795E-3,-6.6276984E-3,7.6213735E-3,-9.750588E-4,4.5550563E-3,-2.3717156E-3],"split_indices":[4,6,4,0,9,10,1,0,0,0,0,0,0],"split_type":[0,0,0,0,0,0,0,0,0,0,0,0,0],"sum_hessian":[3.94E2,1.07E2,2.87E2,7E0,1E2,1.2E2,1.67E2,4.9E1,5.1E1,7.9E1,4.1E1,5E1,1.17E2],"tree_param":{"num_deleted":"0","num_feature":"12","num_nodes":"13","size_leaf_vector":"1"}},{"base_weights":[-1.4065271E-2,-1.4402634E-2,-7.213811E-3,-2.2799283E-2,7.4370734E-2,2.2648876E-3,-2.6206241E-3,5.843302E-3,-8.162665E-3],"categories":[],"categories_nodes":[],"categories_segments":[],"categories_sizes":[],"default_left":[0,0,0,0,0,0,0,0,0],"id":69,"left_children":[1,-1,3,5,7,-1,-1,-1,-1],"loss_changes":[6.0472804E-1,0E0,4.8240435E-1,6.9393986E-1,6.1074024E-1,0E0,0E0,0E0,0E0],"parents":[2147483647,0,0,2,2,3,3,4,4],"right_children":[2,-1,4,6,8,-1,-1,-1,-1],"split_conditions":[1.0773074E3,-1.4402634E-2,1.15E1,1.2739951E1,3.265E3,2.2648876E-3,-2.6206241E-3,5.843302E-3,-8.162665E-3],"split_indices":[8,0,3,9,4,0,0,0,0],"split_type":[0,0,0,0,0,0,0,0,0],"sum_hessian":[4.01E2,6E0,3.95E2,3.38E2,5.7E1,9.7E1,2.41E2,5.1E1,6E0],"tree_param":{"num_deleted":"0","num_feature":"12","num_nodes":"9","size_leaf_vector":"1"}},{"base_weights":[-2.2309504E-2,-2.8908396E-1,-1.2855325E-2,-2.4001604E-2,-0E0,2.98496E-3,-9.600246E-2,-1.9215072E-4,1.0628875E-2,-1.5233283E-2,-0E0],"categories":[],"categories_nodes":[],"categories_segments":[],"categories_sizes":[],"default_left":[0,0,0,0,0,0,0,0,0,0,0],"id":70,"left_children":[1,3,5,-1,-1,7,9,-1,-1,-1,-1],"loss_changes":[7.9244214E-1,4.6331972E-1,5.317652E-1,0E0,0E0,5.4391545E-1,1.3593901E0,0E0,0E0,0E0,0E0],"parents":[2147483647,0,0,1,1,2,2,5,5,6,6],"right_children":[2,4,6,-1,-1,8,10,-1,-1,-1,-1],"split_conditions":[2.0715551E0,1.5462645E3,9.097506E3,-2.4001604E-2,-0E0,2.6854166E1,9.983356E3,-1.9215072E-4,1.0628875E-2,-1.5233283E-2,-0E0],"split_indices":[9,1,8,0,0,0,8,0,0,0,0],"split_type":[0,0,0,0,0,0,0,0,0,0,0],"sum_hessian":[3.75E2,9E0,3.66E2,4E0,5E0,3.04E2,6.2E1,2.94E2,1E1,1.9E1,4.3E1],"tree_param":{"num_deleted":"0","num_feature":"12","num_nodes":"11","size_leaf_vector":"1"}},{"base_weights":[-1.4460184E-2,-2.2647053E-2,1.4261651E-2,-3.0465985E-2,1.4644566E-2,-8.6507853E-4,-7.454842E-3],"categories":[],"categories_nodes":[],"categories_segments":[],"categories_sizes":[],"default_left":[0,0,0,0,0,0,0],"id":71,"left_children":[1,3,-1,5,-1,-1,-1],"loss_changes":[8.483248E-1,8.4142965E-1,0E0,5.0665134E-1,0E0,0E0,0E0],"parents":[2147483647,0,0,1,1,3,3],"right_children":[2,4,-1,6,-1,-1,-1],"split_conditions":[1.3268661E2,2.23E1,1.4261651E-2,2.011E3,1.4644566E-2,-8.6507853E-4,-7.454842E-3],"split_indices":[6,3,0,4,0,0,0],"split_type":[0,0,0,0,0,0,0],"sum_hessian":[3.92E2,3.85E2,7E0,3.79E2,6E0,3.47E2,3.2E1],"tree_param":{"num_deleted":"0","num_feature":"12","num_nodes":"7","size_leaf_vector":"1"}},{"base_weights":[-1.8918891E-3,-1.3822883E-2,2.3802465E-3,-4.536818E-3,1.8734938E-1,-2.124552E-3,1.4235508E-3,1.4629523E-2,-9.894728E-4],"categories":[],"categories_nodes":[],"categories_segments":[],"categories_sizes":[],"default_left":[0,0,0,0,0,0,0,0,0],"id":72,"left_children":[1,-1,3,5,7,-1,-1,-1,-1],"loss_changes":[6.1223966E-1,0E0,6.0232466E-1,4.892468E-1,5.185727E-1,0E0,0E0,0E0,0E0],"parents":[2147483647,0,0,2,2,3,3,4,4],"right_children":[2,-1,4,6,8,-1,-1,-1,-1],"split_conditions":[1.0773074E3,-1.3822883E-2,1.8682623E1,2.8E1,-1.69E1,-2.124552E-3,1.4235508E-3,1.4629523E-2,-9.894728E-4],"split_indices":[8,0,11,2,3,0,0,0,0],"split_type":[0,0,0,0,0,0,0,0,0],"sum_hessian":[4.02E2,6E0,3.96E2,3.81E2,1.5E1,1.84E2,1.97E2,1.1E1,4E0],"tree_param":{"num_deleted":"0","num_feature":"12","num_nodes":"9","size_leaf_vector":"1"}},{"base_weights":[-1.2004022E-2,-2.8796738E-1,-2.611924E-3,-2.3216391E-2,-0E0,1.2854175E-2,-9.727272E-2,4.8031285E-3,-1.0489502E-3,-2.5708089E-2,-5.0427637E-4],"categories":[],"categories_nodes":[],"categories_segments":[],"categories_sizes":[],"default_left":[0,0,0,0,0,0,0,0,0,0,0],"id":73,"left_children":[1,3,5,-1,-1,7,9,-1,-1,-1,-1],"loss_changes":[8.5885346E-1,3.8142455E-1,5.9957856E-1,0E0,0E0,9.5088345E-1,1.8356533E0,0E0,0E0,0E0,0E0],"parents":[2147483647,0,0,1,1,2,2,5,5,6,6],"right_children":[2,4,6,-1,-1,8,10,-1,-1,-1,-1],"split_conditions":[2.0715551E0,2.05E1,9.427007E3,-2.3216391E-2,-0E0,7.901068E2,9.711911E3,4.8031285E-3,-1.0489502E-3,-2.5708089E-2,-5.0427637E-4],"split_indices":[9,2,8,0,0,1,8,0,0,0,0],"split_type":[0,0,0,0,0,0,0,0,0,0,0],"sum_hessian":[3.86E2,9E0,3.77E2,4E0,5E0,3.21E2,5.6E1,9.6E1,2.25E2,7E0,4.9E1],"tree_param":{"num_deleted":"0","num_feature":"12","num_nodes":"11","size_leaf_vector":"1"}},{"base_weights":[-8.146218E-3,-1.3301757E-2,-1.3223981E-3,4.856586E-2,-1.9696923E-2,-1.3733193E-2,4.3100747E-3,-7.624436E-3,-0E0],"categories":[],"categories_nodes":[],"categories_segments":[],"categories_sizes":[],"default_left":[0,0,0,0,0,0,0,0,0],"id":74,"left_children":[1,-1,3,5,7,-1,-1,-1,-1],"loss_changes":[5.41376E-1,0E0,3.3398116E-1,1.1087925E0,7.497829E-1,0E0,0E0,0E0,0E0],"parents":[2147483647,0,0,2,2,3,3,4,4],"right_children":[2,-1,4,6,8,-1,-1,-1,-1],"split_conditions":[1.0773074E3,-1.3301757E-2,6.2079587E0,2.14E1,6.737067E0,-1.3733193E-2,4.3100747E-3,-7.624436E-3,-0E0],"split_indices":[8,0,11,2,11,0,0,0,0],"split_type":[0,0,0,0,0,0,0,0,0],"sum_hessian":[3.82E2,6E0,3.76E2,9.3E1,2.83E2,7E0,8.6E1,3.5E1,2.48E2],"tree_param":{"num_deleted":"0","num_feature":"12","num_nodes":"9","size_leaf_vector":"1"}},{"base_weights":[-1.171839E-2,-9.738502E-2,3.5722035E-3,-1.9839248E-3,-3.1848967E-1,-7.6554194E-3,1.4990418E-1,2.1015767E-3,-2.0738594E-2,-0E0,-2.1830712E-2,-4.6486445E-3,1.5627733E-3,-0E0,1.0379395E-2],"categories":[],"categories_nodes":[],"categories_segments":[],"categories_sizes":[],"default_left":[0,0,0,0,0,0,0,0,0,0,0,0,0,0,0],"id":75,"left_children":[1,3,5,7,9,11,13,-1,-1,-1,-1,-1,-1,-1,-1],"loss_changes":[5.6632E-1,1.2095851E0,6.2052536E-1,1.1115206E0,6.523738E-1,1.0591624E0,2.551307E-1,0E0,0E0,0E0,0E0,0E0,0E0,0E0,0E0],"parents":[2147483647,0,0,1,1,2,2,3,3,4,4,5,5,6,6],"right_children":[2,4,6,8,10,12,14,-1,-1,-1,-1,-1,-1,-1,-1],"split_conditions":[3.6653481E3,1.4243353E3,1.2999338E3,7.3E1,1.5291666E0,6.7E1,-7.107738E0,2.1015767E-3,-2.0738594E-2,-0E0,-2.1830712E-2,-4.6486445E-3,1.5627733E-3,-0E0,1.0379395E-2],"split_indices":[8,1,1,7,0,7,10,0,0,0,0,0,0,0,0],"split_type":[0,0,0,0,0,0,0,0,0,0,0,0,0,0,0],"sum_hessian":[3.94E2,6.3E1,3.31E2,4.7E1,1.6E1,3.06E2,2.5E1,4.3E1,4E0,5E0,1.1E1,9.9E1,2.07E2,7E0,1.8E1],"tree_param":{"num_deleted":"0","num_feature":"12","num_nodes":"15","size_leaf_vector":"1"}},{"base_weights":[3.8186985E-3,-1.7118874E-3,1.5124298E-2,-3.00837E-2,4.7228992E-2,-0E0,-7.7283094E-3,1.0566023E-2,9.307623E-4],"categories":[],"categories_nodes":[],"categories_segments":[],"categories_sizes":[],"default_left":[0,0,0,0,0,0,0,0,0],"id":76,"left_children":[1,3,-1,5,7,-1,-1,-1,-1],"loss_changes":[8.187518E-1,5.455199E-1,0E0,9.3624216E-1,5.3450257E-1,0E0,0E0,0E0,0E0],"parents":[2147483647,0,0,1,1,3,3,4,4],"right_children":[2,4,-1,6,8,-1,-1,-1,-1],"split_conditions":[1.5016355E4,1.06E2,1.5124298E-2,7.7E1,1.2E2,-0E0,-7.7283094E-3,1.0566023E-2,9.307623E-4],"split_indices":[8,7,0,7,7,0,0,0,0],"split_type":[0,0,0,0,0,0,0,0,0],"sum_hessian":[4.02E2,3.95E2,7E0,2.57E2,1.38E2,2.1E2,4.7E1,1.6E1,1.22E2],"tree_param":{"num_deleted":"0","num_feature":"12","num_nodes":"9","size_leaf_vector":"1"}},{"base_weights":[8.6805306E-4,-1.808837E-1,1.5168481E-2,-0E0,-2.5943717E-1,-0E0,2.3262903E-1,-6.6638603E-3,5.991244E-3,-1.6440073E-2,-3.072516E-3,8.284265E-4,-7.34666E-3,1.834395E-2,-0E0],"categories":[],"categories_nodes":[],"categories_segments":[],"categories_sizes":[],"default_left":[0,0,0,0,0,0,0,0,0,0,0,0,0,0,0],"id":77,"left_children":[1,3,5,7,9,11,13,-1,-1,-1,-1,-1,-1,-1,-1],"loss_changes":[9.700783E-1,3.281269E-1,1.3200514E0,2.1048772E-1,1.1662006E-2,9.076921E-1,8.811805E-1,0E0,0E0,0E0,0E0,0E0,0E0,0E0,0E0],"parents":[2147483647,0,0,1,1,2,2,3,3,4,4,5,5,6,6],"right_children":[2,4,6,8,10,12,14,-1,-1,-1,-1,-1,-1,-1,-1],"split_conditions":[3.86E2,1.59352045E1,1.5215095E1,8.4583336E-1,1.7778425E1,1.1716257E1,2.51E1,-6.6638603E-3,5.991244E-3,-1.6440073E-2,-3.072516E-3,8.284265E-4,-7.34666E-3,1.834395E-2,-0E0],"split_indices":[4,11,11,0,9,11,2,0,0,0,0,0,0,0,0],"split_type":[0,0,0,0,0,0,0,0,0,0,0,0,0,0,0],"sum_hessian":[4.01E2,2.5E1,3.76E2,9E0,1.6E1,3.52E2,2.4E1,5E0,4E0,9E0,7E0,3.16E2,3.6E1,1.5E1,9E0],"tree_param":{"num_deleted":"0","num_feature":"12","num_nodes":"15","size_leaf_vector":"1"}},{"base_weights":[6.162194E-3,2.1973856E-2,-6.885578E-2,-9.611147E-4,1.5203479E-1,-1.3318141E-1,1.3500087E-1,5.5891466E-3,-1.3384033E-3,1.2335917E-2,1.3785451E-3,-9.596932E-3,1.2559103E-3,1.3352445E-2,-2.3373046E-3],"categories":[],"categories_nodes":[],"categories_segments":[],"categories_sizes":[],"default_left":[0,0,0,0,0,0,0,0,0,0,0,0,0,0,0],"id":78,"left_children":[1,3,5,7,9,11,13,-1,-1,-1,-1,-1,-1,-1,-1],"loss_changes":[4.3625617E-1,1.0452858E0,8.480684E-1,7.636115E-1,4.6205425E-1,5.5811477E-1,4.7110894E-1,0E0,0E0,0E0,0E0,0E0,0E0,0E0,0E0],"parents":[2147483647,0,0,1,1,2,2,3,3,4,4,5,5,6,6],"right_children":[2,4,6,8,10,12,14,-1,-1,-1,-1,-1,-1,-1,-1],"split_conditions":[1.898E3,1.45E2,2.22E1,5.745967E2,1.72E2,1.0577328E4,2.6929167E1,5.5891466E-3,-1.3384033E-3,1.2335917E-2,1.3785451E-3,-9.596932E-3,1.2559103E-3,1.3352445E-2,-2.3373046E-3],"split_indices":[4,7,3,1,7,8,0,0,0,0,0,0,0,0,0],"split_type":[0,0,0,0,0,0,0,0,0,0,0,0,0,0,0],"sum_hessian":[3.83E2,3.23E2,6E1,2.73E2,5E1,4.8E1,1.2E1,4.6E1,2.27E2,2.5E1,2.5E1,3.7E1,1.1E1,8E0,4E0],"tree_param":{"num_deleted":"0","num_feature":"12","num_nodes":"15","size_leaf_vector":"1"}},{"base_weights":[-3.7103498E-3,-7.844666E-2,1.7499499E-2,-0E0,-2.7974313E-1,2.3830715E-1,-0E0,-4.135766E-3,1.1790199E-2,-0E0,-1.6823126E-2,2.1662423E-2,1.4652594E-3,-5.2845534E-3,1.1855093E-3],"categories":[],"categories_nodes":[],"categories_segments":[],"categories_sizes":[],"default_left":[0,0,0,0,0,0,0,0,0,0,0,0,0,0,0],"id":79,"left_children":[1,3,5,7,9,11,13,-1,-1,-1,-1,-1,-1,-1,-1],"loss_changes":[6.6727746E-1,1.5344536E0,1.155067E0,1.4122417E0,3.7763643E-1,6.3967896E-1,7.146684E-1,0E0,0E0,0E0,0E0,0E0,0E0,0E0,0E0],"parents":[2147483647,0,0,1,1,2,2,3,3,4,4,5,5,6,6],"right_children":[2,4,6,8,10,12,14,-1,-1,-1,-1,-1,-1,-1,-1],"split_conditions":[-1.45E1,1.4167513E1,5.32E2,1.1465386E1,1.7339347E3,1.934477E1,5.410274E3,-4.135766E-3,1.1790199E-2,-0E0,-1.6823126E-2,2.1662423E-2,1.4652594E-3,-5.2845534E-3,1.1855093E-3],"split_indices":[3,9,4,9,8,9,8,0,0,0,0,0,0,0,0],"split_type":[0,0,0,0,0,0,0,0,0,0,0,0,0,0,0],"sum_hessian":[3.98E2,9.2E1,3.06E2,6.7E1,2.5E1,2E1,2.86E2,5E1,1.7E1,5E0,2E1,8E0,1.2E1,5E1,2.36E2],"tree_param":{"num_deleted":"0","num_feature":"12","num_nodes":"15","size_leaf_vector":"1"}},{"base_weights":[-1.0034847E-2,6.752594E-2,-3.6631376E-2,-0E0,1.581541E-1,-9.516575E-2,1.4664858E-2,1.3287835E-3,-1.3945795E-2,-6.8044267E-3,1.0406612E-2,-2.9575124E-3,-1.5646212E-2,1.707425E-3,-1.13313E-2],"categories":[],"categories_nodes":[],"categories_segments":[],"categories_sizes":[],"default_left":[0,0,0,0,0,0,0,0,0,0,0,0,0,0,0],"id":80,"left_children":[1,3,5,7,9,11,13,-1,-1,-1,-1,-1,-1,-1,-1],"loss_changes":[7.981362E-1,6.378106E-1,9.3781424E-1,5.02784E-1,7.250159E-1,9.062897E-1,6.526302E-1,0E0,0E0,0E0,0E0,0E0,0E0,0E0,0E0],"parents":[2147483647,0,0,1,1,2,2,3,3,4,4,5,5,6,6],"right_children":[2,4,6,8,10,12,14,-1,-1,-1,-1,-1,-1,-1,-1],"split_conditions":[6.2079587E0,5.6311398E0,8.934969E0,5.5584784E0,3.29984E1,8.688111E0,3.1326866E1,1.3287835E-3,-1.3945795E-2,-6.8044267E-3,1.0406612E-2,-2.9575124E-3,-1.5646212E-2,1.707425E-3,-1.13313E-2],"split_indices":[11,11,11,11,6,11,9,0,0,0,0,0,0,0,0],"split_type":[0,0,0,0,0,0,0,0,0,0,0,0,0,0,0],"sum_hessian":[3.9E2,9.4E1,2.96E2,5.3E1,4.1E1,1.42E2,1.54E2,4.9E1,4E0,4E0,3.7E1,1.26E2,1.6E1,1.46E2,8E0],"tree_param":{"num_deleted":"0","num_feature":"12","num_nodes":"15","size_leaf_vector":"1"}},{"base_weights":[-0E0,-9.3322E-3,1.7403214E-1,-1.9606413E-1,-9.1039494E-4,3.0950344E-1,-3.0492276E-3,-1.526356E-2,-0E0,-7.867906E-4,6.422533E-3,-0E0,2.1712376E-2],"categories":[],"categories_nodes":[],"categories_segments":[],"categories_sizes":[],"default_left":[0,0,0,0,0,0,0,0,0,0,0,0,0],"id":81,"left_children":[1,3,5,7,9,11,-1,-1,-1,-1,-1,-1,-1],"loss_changes":[6.6947347E-1,5.050418E-1,8.3060765E-1,3.0053854E-1,6.611185E-1,6.373944E-1,0E0,0E0,0E0,0E0,0E0,0E0,0E0],"parents":[2147483647,0,0,1,1,2,2,3,3,4,4,5,5],"right_children":[2,4,6,8,10,12,-1,-1,-1,-1,-1,-1,-1],"split_conditions":[1.2051197E2,2.79E2,1.2776883E1,-2.12E1,1.2999338E3,2.424193E3,-3.0492276E-3,-1.526356E-2,-0E0,-7.867906E-4,6.422533E-3,-0E0,2.1712376E-2],"split_indices":[6,4,11,3,1,8,0,0,0,0,0,0,0],"split_type":[0,0,0,0,0,0,0,0,0,0,0,0,0],"sum_hessian":[4.01E2,3.82E2,1.9E1,1.2E1,3.7E2,1.3E1,6E0,7E0,5E0,3.37E2,3.3E1,4E0,9E0],"tree_param":{"num_deleted":"0","num_feature":"12","num_nodes":"13","size_leaf_vector":"1"}},{"base_weights":[-0E0,-9.61951E-2,2.2539513E-2,-2.0987606E-2,-5.857036E-2,1.9845398E-1,2.1810764E-3,1.2482461E-2,-4.6195607E-3,-3.494164E-3,1.3885605E-2,-5.7462617E-3,1.4736233E-3],"categories":[],"categories_nodes":[],"categories_segments":[],"categories_sizes":[],"default_left":[0,0,0,0,0,0,0,0,0,0,0,0,0],"id":82,"left_children":[1,3,5,-1,7,9,11,-1,-1,-1,-1,-1,-1],"loss_changes":[8.4428024E-1,6.125263E-1,1.0233586E0,0E0,6.971993E-1,7.807666E-1,8.7810206E-1,0E0,0E0,0E0,0E0,0E0,0E0],"parents":[2147483647,0,0,1,1,2,2,4,4,5,5,6,6],"right_children":[2,4,6,-1,8,10,12,-1,-1,-1,-1,-1,-1],"split_conditions":[3.8153076E3,4.077763E1,4.581575E3,-2.0987606E-2,6.1974598E1,7.835356E1,9E0,1.2482461E-2,-4.6195607E-3,-3.494164E-3,1.3885605E-2,-5.7462617E-3,1.4736233E-3],"split_indices":[8,6,8,0,6,6,5,0,0,0,0,0,0],"split_type":[0,0,0,0,0,0,0,0,0,0,0,0,0],"sum_hessian":[3.84E2,7.2E1,3.12E2,4E0,6.8E1,2.8E1,2.84E2,4E0,6.4E1,5E0,2.3E1,4.9E1,2.35E2],"tree_param":{"num_deleted":"0","num_feature":"12","num_nodes":"13","size_leaf_vector":"1"}},{"base_weights":[-3.8865323E-3,1.3236251E-2,-1.1186248E-1,1.4363855E-2,5.022356E-3,-4.2565823E-1,-1.8335938E-2,4.9998164E-3,-5.013104E-4,-0E0,-3.1130714E-2,2.8750242E-3,-1.1308807E-2],"categories":[],"categories_nodes":[],"categories_segments":[],"categories_sizes":[],"default_left":[0,0,0,0,0,0,0,0,0,0,0,0,0],"id":83,"left_children":[1,3,5,-1,7,9,11,-1,-1,-1,-1,-1,-1],"loss_changes":[7.7887195E-1,6.095324E-1,1.4645905E0,0E0,5.200627E-1,9.2696905E-1,8.669175E-1,0E0,0E0,0E0,0E0,0E0,0E0],"parents":[2147483647,0,0,1,1,2,2,4,4,5,5,6,6],"right_children":[2,4,6,-1,8,10,12,-1,-1,-1,-1,-1,-1],"split_conditions":[9.427007E3,3.636932E1,9.983356E3,1.4363855E-2,2.025E0,6.1E1,3.12E1,4.9998164E-3,-5.013104E-4,-0E0,-3.1130714E-2,2.8750242E-3,-1.1308807E-2],"split_indices":[8,1,8,0,0,7,2,0,0,0,0,0,0],"split_type":[0,0,0,0,0,0,0,0,0,0,0,0,0],"sum_hessian":[3.91E2,3.35E2,5.6E1,6E0,3.29E2,1E1,4.6E1,4.8E1,2.81E2,4E0,6E0,3.3E1,1.3E1],"tree_param":{"num_deleted":"0","num_feature":"12","num_nodes":"13","size_leaf_vector":"1"}},{"base_weights":[-3.7725875E-3,-1.2222691E-1,4.4785575E-3,-0E0,-2.2618696E-1,1.5363214E-2,-8.1251876E-4,-1.0707203E-2,5.1543694E-3,-5.7089626E-4,-1.51382405E-2,-2.9677802E-3,6.6317775E-4],"categories":[],"categories_nodes":[],"categories_segments":[],"categories_sizes":[],"default_left":[0,0,0,0,0,0,0,0,0,0,0,0,0],"id":84,"left_children":[1,3,5,7,9,-1,11,-1,-1,-1,-1,-1,-1],"loss_changes":[4.4994506E-1,3.7038615E-1,7.4809027E-1,4.026702E-1,9.913957E-2,0E0,3.2540125E-1,0E0,0E0,0E0,0E0,0E0,0E0],"parents":[2147483647,0,0,1,1,2,2,3,3,4,4,6,6],"right_children":[2,4,6,8,10,-1,12,-1,-1,-1,-1,-1,-1],"split_conditions":[3.75E2,1.4218268E3,4E2,9.704833E2,1.598795E1,1.5363214E-2,6.06E2,-1.0707203E-2,5.1543694E-3,-5.7089626E-4,-1.51382405E-2,-2.9677802E-3,6.6317775E-4],"split_indices":[4,1,4,1,11,0,4,0,0,0,0,0,0],"split_type":[0,0,0,0,0,0,0,0,0,0,0,0,0],"sum_hessian":[3.97E2,2.8E1,3.69E2,1.4E1,1.4E1,6E0,3.63E2,4E0,1E1,6E0,8E0,7.6E1,2.87E2],"tree_param":{"num_deleted":"0","num_feature":"12","num_nodes":"13","size_leaf_vector":"1"}},{"base_weights":[-1.6122222E-2,-2.2502033E-2,9.42334E-3,-5.1062447E-3,-1.1083505E-1,-1.833622E-3,3.7595574E-3,-2.0236691E-2,-2.021889E-3],"categories":[],"categories_nodes":[],"categories_segments":[],"categories_sizes":[],"default_left":[0,0,0,0,0,0,0,0,0],"id":85,"left_children":[1,3,-1,5,7,-1,-1,-1,-1],"loss_changes":[4.5020556E-1,5.4632664E-1,0E0,8.3790904E-1,9.860616E-1,0E0,0E0,0E0,0E0],"parents":[2147483647,0,0,1,1,3,3,4,4],"right_children":[2,4,-1,6,8,-1,-1,-1,-1],"split_conditions":[1.5016355E4,9.427007E3,9.42334E-3,3.7E1,9.711911E3,-1.833622E-3,3.7595574E-3,-2.0236691E-2,-2.021889E-3],"split_indices":[8,8,0,5,8,0,0,0,0],"split_type":[0,0,0,0,0,0,0,0,0],"sum_hessian":[4E2,3.92E2,8E0,3.34E2,5.8E1,2.45E2,8.9E1,8E0,5E1],"tree_param":{"num_deleted":"0","num_feature":"12","num_nodes":"9","size_leaf_vector":"1"}},{"base_weights":[3.1816203E-3,-9.777385E-3,9.665895E-2,1.0892047E-2,-8.270024E-2,-0E0,2.1097843E-1,-1.8886244E-3,2.6876463E-3,-1.8490137E-3,-2.112174E-2,7.293696E-3,-5.0883624E-3,-1.1957645E-3,1.5985569E-2],"categories":[],"categories_nodes":[],"categories_segments":[],"categories_sizes":[],"default_left":[0,0,0,0,0,0,0,0,0,0,0,0,0,0,0],"id":86,"left_children":[1,3,5,7,9,11,13,-1,-1,-1,-1,-1,-1,-1,-1],"loss_changes":[5.141323E-1,5.45657E-1,5.82452E-1,5.522744E-1,9.8166096E-1,4.734044E-1,7.761663E-1,0E0,0E0,0E0,0E0,0E0,0E0,0E0,0E0],"parents":[2147483647,0,0,1,1,2,2,3,3,4,4,5,5,6,6],"right_children":[2,4,6,8,10,12,14,-1,-1,-1,-1,-1,-1,-1,-1],"split_conditions":[1.18E1,1.8E0,4.678284E1,-1.13E1,1.68E2,8.498279E3,5.767692E3,-1.8886244E-3,2.6876463E-3,-1.8490137E-3,-2.112174E-2,7.293696E-3,-5.0883624E-3,-1.1957645E-3,1.5985569E-2],"split_indices":[3,3,1,3,7,8,8,0,0,0,0,0,0,0,0],"split_type":[0,0,0,0,0,0,0,0,0,0,0,0,0,0,0],"sum_hessian":[3.85E2,3.35E2,5E1,2.57E2,7.8E1,2.8E1,2.2E1,1.15E2,1.42E2,7.2E1,6E0,1.1E1,1.7E1,6E0,1.6E1],"tree_param":{"num_deleted":"0","num_feature":"12","num_nodes":"15","size_leaf_vector":"1"}},{"base_weights":[1.6689807E-2,-1.106103E-2,2.259979E-2,2.7493801E-2,-8.109594E-3,1.0205444E-3,1.512635E-2],"categories":[],"categories_nodes":[],"categories_segments":[],"categories_sizes":[],"default_left":[0,0,0,0,0,0,0],"id":87,"left_children":[1,-1,3,5,-1,-1,-1],"loss_changes":[4.8294973E-1,0E0,3.042227E-1,5.956557E-1,0E0,0E0,0E0],"parents":[2147483647,0,0,2,2,3,3],"right_children":[2,-1,4,6,-1,-1,-1],"split_conditions":[1.0773074E3,-1.106103E-2,3.265E3,4.99E2,-8.109594E-3,1.0205444E-3,1.512635E-2],"split_indices":[8,0,4,7,0,0,0],"split_type":[0,0,0,0,0,0,0],"sum_hessian":[4.05E2,6E0,3.99E2,3.93E2,6E0,3.87E2,6E0],"tree_param":{"num_deleted":"0","num_feature":"12","num_nodes":"7","size_leaf_vector":"1"}},{"base_weights":[-0E0,-1.4846613E-1,8.457238E-3,-0E0,-1.6852712E-2,1.4606008E-1,-0E0,1.2642199E-2,-1.2530657E-2,1.3435641E-2,-1.081766E-3,6.383033E-4,-7.3906444E-3],"categories":[],"categories_nodes":[],"categories_segments":[],"categories_sizes":[],"default_left":[0,0,0,0,0,0,0,0,0,0,0,0,0],"id":88,"left_children":[1,3,5,7,-1,9,11,-1,-1,-1,-1,-1,-1],"loss_changes":[5.122507E-1,5.3752184E-1,4.2068198E-1,1.0767032E0,0E0,5.671004E-1,6.666839E-1,0E0,0E0,0E0,0E0,0E0,0E0],"parents":[2147483647,0,0,1,1,2,2,3,3,5,5,6,6],"right_children":[2,4,6,8,-1,10,12,-1,-1,-1,-1,-1,-1],"split_conditions":[1.83E1,1.8E1,-4.160872E0,1.9851196E1,-1.6852712E-2,2.46E1,1.6111643E1,1.2642199E-2,-1.2530657E-2,1.3435641E-2,-1.081766E-3,6.383033E-4,-7.3906444E-3],"split_indices":[2,7,10,11,0,2,11,0,0,0,0,0,0],"split_type":[0,0,0,0,0,0,0,0,0,0,0,0,0],"sum_hessian":[4E2,2E1,3.8E2,1.3E1,7E0,1.9E1,3.61E2,6E0,7E0,1.2E1,7E0,3.35E2,2.6E1],"tree_param":{"num_deleted":"0","num_feature":"12","num_nodes":"13","size_leaf_vector":"1"}},{"base_weights":[-1.424103E-2,-1.986567E-2,8.039019E-3,-8.310104E-3,-1.528754E-1,-1.51799E-3,3.063592E-3,-1.139768E-2,5.753128E-3],"categories":[],"categories_nodes":[],"categories_segments":[],"categories_sizes":[],"default_left":[0,0,0,0,0,0,0,0,0],"id":89,"left_children":[1,3,-1,5,7,-1,-1,-1,-1],"loss_changes":[3.326568E-1,5.239824E-1,0E0,5.544066E-1,6.721597E-1,0E0,0E0,0E0,0E0],"parents":[2147483647,0,0,1,1,3,3,4,4],"right_children":[2,4,-1,6,8,-1,-1,-1,-1],"split_conditions":[2.23E1,2.397E3,8.039019E-3,3.7E1,9.024311E0,-1.51799E-3,3.063592E-3,-1.139768E-2,5.753128E-3],"split_indices":[3,4,0,5,11,0,0,0,0],"split_type":[0,0,0,0,0,0,0,0,0],"sum_hessian":[4.01E2,3.93E2,8E0,3.67E2,2.6E1,2.85E2,8.2E1,2.2E1,4E0],"tree_param":{"num_deleted":"0","num_feature":"12","num_nodes":"9","size_leaf_vector":"1"}},{"base_weights":[-0E0,-1.2151607E-2,6.41683E-3,6.272993E-2,-1.5155999E-2,8.179831E-3,-1.2584984E-3,-9.220978E-3,1.7503786E-4],"categories":[],"categories_nodes":[],"categories_segments":[],"categories_sizes":[],"default_left":[0,0,0,0,0,0,0,0,0],"id":90,"left_children":[1,-1,3,5,7,-1,-1,-1,-1],"loss_changes":[5.475166E-1,0E0,4.958288E-1,1.0881925E0,9.601756E-1,0E0,0E0,0E0,0E0],"parents":[2147483647,0,0,2,2,3,3,4,4],"right_children":[2,-1,4,6,8,-1,-1,-1,-1],"split_conditions":[1.6895643E0,-1.2151607E-2,5.0511763E3,1.0698905E3,5.410274E3,8.179831E-3,-1.2584984E-3,-9.220978E-3,1.7503786E-4],"split_indices":[9,0,8,1,8,0,0,0,0],"split_type":[0,0,0,0,0,0,0,0,0],"sum_hessian":[3.92E2,7E0,3.85E2,1.12E2,2.73E2,5.4E1,5.8E1,2.8E1,2.45E2],"tree_param":{"num_deleted":"0","num_feature":"12","num_nodes":"9","size_leaf_vector":"1"}},{"base_weights":[-9.449798E-3,-7.893255E-2,8.051676E-3,-2.1089738E-2,-4.4994574E-2,1.08752465E-2,-1.0196618E-3,-3.5433273E-4,-1.2946635E-2,-2.628531E-3,1.5983576E-3],"categories":[],"categories_nodes":[],"categories_segments":[],"categories_sizes":[],"default_left":[0,0,0,0,0,0,0,0,0,0,0],"id":91,"left_children":[1,3,5,-1,7,-1,9,-1,-1,-1,-1],"loss_changes":[5.0853914E-1,7.0607644E-1,6.900927E-1,0E0,5.121163E-1,0E0,5.119099E-1,0E0,0E0,0E0,0E0],"parents":[2147483647,0,0,1,1,2,2,4,4,6,6],"right_children":[2,4,6,-1,8,-1,10,-1,-1,-1,-1],"split_conditions":[2.36E1,2.0715551E0,2.46E1,-2.1089738E-2,1.04662346E2,1.08752465E-2,1.3816667E1,-3.5433273E-4,-1.2946635E-2,-2.628531E-3,1.5983576E-3],"split_indices":[2,9,2,0,6,0,0,0,0,0,0],"split_type":[0,0,0,0,0,0,0,0,0,0,0],"sum_hessian":[3.86E2,8.2E1,3.04E2,4E0,7.8E1,1.3E1,2.91E2,7E1,8E0,1.19E2,1.72E2],"tree_param":{"num_deleted":"0","num_feature":"12","num_nodes":"11","size_leaf_vector":"1"}},{"base_weights":[-0E0,-2.0677192E-2,5.3758685E-2,-4.0247235E-2,9.301166E-2,1.8503629E-1,-0E0,-6.450678E-4,-1.1914117E-2,7.568264E-3,-5.4224967E-3,-0E0,1.2463774E-2,2.242053E-3,-1.2032661E-2],"categories":[],"categories_nodes":[],"categories_segments":[],"categories_sizes":[],"default_left":[0,0,0,0,0,0,0,0,0,0,0,0,0,0,0],"id":92,"left_children":[1,3,5,7,9,11,13,-1,-1,-1,-1,-1,-1,-1,-1],"loss_changes":[4.3193537E-1,6.1964977E-1,7.864001E-1,1.222121E0,5.127733E-1,3.9568853E-1,8.855892E-1,0E0,0E0,0E0,0E0,0E0,0E0,0E0,0E0],"parents":[2147483647,0,0,1,1,2,2,3,3,4,4,5,5,6,6],"right_children":[2,4,6,8,10,12,14,-1,-1,-1,-1,-1,-1,-1,-1],"split_conditions":[3.7E1,9.711911E3,1.532E3,1.364E3,3.17E1,1.45E2,8.702538E0,-6.450678E-4,-1.1914117E-2,7.568264E-3,-5.4224967E-3,-0E0,1.2463774E-2,2.242053E-3,-1.2032661E-2],"split_indices":[5,8,4,4,2,7,11,0,0,0,0,0,0,0,0],"split_type":[0,0,0,0,0,0,0,0,0,0,0,0,0,0,0],"sum_hessian":[3.9E2,2.85E2,1.05E2,2.48E2,3.7E1,3E1,7.5E1,2.22E2,2.6E1,3.1E1,6E0,8E0,2.2E1,6.4E1,1.1E1],"tree_param":{"num_deleted":"0","num_feature":"12","num_nodes":"15","size_leaf_vector":"1"}},{"base_weights":[-9.779977E-3,-1.5808227E-2,1.6136855E-1,-2.8215313E-2,6.582743E-2,-0E0,1.0715951E-2,-6.613865E-3,-5.29036E-4,5.7358234E-3,-1.1157656E-2],"categories":[],"categories_nodes":[],"categories_segments":[],"categories_sizes":[],"default_left":[0,0,0,0,0,0,0,0,0,0,0],"id":93,"left_children":[1,3,5,7,9,-1,-1,-1,-1,-1,-1],"loss_changes":[3.4604385E-1,3.8195005E-1,3.5090625E-2,5.625484E-1,6.6099536E-1,0E0,0E0,0E0,0E0,0E0,0E0],"parents":[2147483647,0,0,1,1,2,2,3,3,4,4],"right_children":[2,4,6,8,10,-1,-1,-1,-1,-1,-1],"split_conditions":[1.5016355E4,1.2999338E3,8.9353745E1,1.3E1,5.6125E0,-0E0,1.0715951E-2,-6.613865E-3,-5.29036E-4,5.7358234E-3,-1.1157656E-2],"split_indices":[8,1,1,7,0,0,0,0,0,0,0],"split_type":[0,0,0,0,0,0,0,0,0,0,0],"sum_hessian":[3.99E2,3.9E2,9E0,3.45E2,4.5E1,4E0,5E0,4.4E1,3.01E2,4.1E1,4E0],"tree_param":{"num_deleted":"0","num_feature":"12","num_nodes":"11","size_leaf_vector":"1"}},{"base_weights":[-4.696532E-3,-1.8987551E-2,8.203924E-2,-4.036561E-3,-2.2085825E-2,-1.0683126E-2,1.983804E-1,-5.76638E-3,3.207066E-4,-4.9616857E-3,7.6296176E-3,-0E0,1.4089857E-2],"categories":[],"categories_nodes":[],"categories_segments":[],"categories_sizes":[],"default_left":[0,0,0,0,0,0,0,0,0,0,0,0,0],"id":94,"left_children":[1,3,5,7,-1,9,11,-1,-1,-1,-1,-1,-1],"loss_changes":[4.7608346E-1,2.0235543E0,6.698209E-1,4.5952094E-1,0E0,4.228913E-1,5.6496835E-1,0E0,0E0,0E0,0E0,0E0,0E0],"parents":[2147483647,0,0,1,1,2,2,3,3,5,5,6,6],"right_children":[2,4,6,8,-1,10,12,-1,-1,-1,-1,-1,-1],"split_conditions":[1.16E1,1.9032598E1,4.678284E1,2.05E1,-2.2085825E-2,2.23E1,6.258313E3,-5.76638E-3,3.207066E-4,-4.9616857E-3,7.6296176E-3,-0E0,1.4089857E-2],"split_indices":[3,10,1,2,0,3,8,0,0,0,0,0,0],"split_type":[0,0,0,0,0,0,0,0,0,0,0,0,0],"sum_hessian":[4.05E2,3.54E2,5.1E1,3.45E2,9E0,2.7E1,2.4E1,3.2E1,3.13E2,2E1,7E0,6E0,1.8E1],"tree_param":{"num_deleted":"0","num_feature":"12","num_nodes":"13","size_leaf_vector":"1"}},{"base_weights":[3.7088466E-3,1.4537756E-2,-1.3902152E-1,8.7457374E-2,-3.518286E-3,-2.078268E-1,-0E0,8.657058E-3,1.1070723E-3,-4.062432E-3,5.9912784E-4,-0E0,-1.357455E-2],"categories":[],"categories_nodes":[],"categories_segments":[],"categories_sizes":[],"default_left":[0,0,0,0,0,0,0,0,0,0,0,0,0],"id":95,"left_children":[1,3,5,7,9,11,-1,-1,-1,-1,-1,-1,-1],"loss_changes":[5.569547E-1,5.363248E-1,3.3747303E-1,3.4241277E-1,3.9443126E-1,2.8496283E-1,0E0,0E0,0E0,0E0,0E0,0E0,0E0],"parents":[2147483647,0,0,1,1,2,2,3,3,4,4,5,5],"right_children":[2,4,6,8,10,12,-1,-1,-1,-1,-1,-1,-1],"split_conditions":[2.586E3,6.131193E0,2.22E1,2.4E1,6.831459E0,4.5E0,-0E0,8.657058E-3,1.1070723E-3,-4.062432E-3,5.9912784E-4,-0E0,-1.357455E-2],"split_indices":[4,11,3,5,11,3,0,0,0,0,0,0,0],"split_type":[0,0,0,0,0,0,0,0,0,0,0,0,0],"sum_hessian":[3.96E2,3.73E2,2.3E1,7.8E1,2.95E2,1.7E1,6E0,2.9E1,4.9E1,5.3E1,2.42E2,4E0,1.3E1],"tree_param":{"num_deleted":"0","num_feature":"12","num_nodes":"13","size_leaf_vector":"1"}},{"base_weights":[-6.2217093E-3,-1.8679531E-1,-0E0,-2.0236047E-2,-0E0,-5.5574263E-3,1.8751326E-1,2.87595E-4,-6.6309418E-3,2.0144673E-2,-3.5190184E-4],"categories":[],"categories_nodes":[],"categories_segments":[],"categories_sizes":[],"default_left":[0,0,0,0,0,0,0,0,0,0,0],"id":96,"left_children":[1,3,5,-1,-1,7,9,-1,-1,-1,-1],"loss_changes":[4.031873E-1,5.640844E-1,3.6344117E-1,0E0,0E0,6.15322E-1,6.2262386E-1,0E0,0E0,0E0,0E0],"parents":[2147483647,0,0,1,1,2,2,5,5,6,6],"right_children":[2,4,6,-1,-1,8,10,-1,-1,-1,-1],"split_conditions":[2.0715551E0,2.05E1,1.3268661E2,-2.0236047E-2,-0E0,1.1220087E2,1.3678036E2,2.87595E-4,-6.6309418E-3,2.0144673E-2,-3.5190184E-4],